tree
version=v4
num_class=1
num_tree_per_iteration=1
label_index=0
max_feature_idx=51
objective=binary sigmoid:1
feature_names=Column_0 Column_1 Column_2 Column_3 Column_4 Column_5 Column_6 Column_7 Column_8 Column_9 Column_10 Column_11 Column_12 Column_13 Column_14 Column_15 Column_16 Column_17 Column_18 Column_19 Column_20 Column_21 Column_22 Column_23 Column_24 Column_25 Column_26 Column_27 Column_28 Column_29 Column_30 Column_31 Column_32 Column_33 Column_34 Column_35 Column_36 Column_37 Column_38 Column_39 Column_40 Column_41 Column_42 Column_43 Column_44 Column_45 Column_46 Column_47 Column_48 Column_49 Column_50 Column_51
feature_infos=[-1:2] [0:12] [0:4] [0:4] [0:1] [0:1] [0:1] [0:1] [0:1] [0:1] [0:1] [0:1] [0:1] [0:1] [0:1] [0:1] [0:1] [0:1] [0:1] [0:1] [-1:2] [0:12] [0:4] [0:4] [0:1] [0:1] [0:1] [0:1] [0:1] [0:1] [0:1] [0:1] [0:1] [0:1] [0:1] [0:1] [0:1] [0:1] [0:1] [0:1] [-1:1] [-1:1] [-1:1] [-1:1] [-1:1] [0:1] [0:1] [0:1] [0:1] [-24.510254261240686:9.0402195311008615] [-1:1] [0.42857142857142855:0.94285714285714284]
tree_sizes=11250 11255 11257 11256 11293 11269 11276 11304 11312 11298 11257 11307 11303 11351 11312 11342 11336 11346 11346 11377 11357 11358 11386 11387 11383 11388 11379 11419 11438 11392 11436 11451 11482 11472 11460 11405 11454 11461 11497 11449 11487 11451 11503 11498 11485 11446 11533 11442 11527 11505 11500 11482 11537 11545 11571 11472 11473 11516 11512 11545 11531 11569 11498 11486 11504 11497 11558 11519 11553 11540 11539 11506 11557 11540 11559 11576 11545 11506 11570 11516 11564 11551 11538 11574 11521 11474 11509 11532 11482 11475 11529 11527 11548 11527 11593 11516 11549 11485 11481 11513

Tree=0
num_leaves=100
num_cat=0
split_feature=20 0 0 0 20 1 21 1 20 49 21 49 21 21 23 49 49 1 21 21 23 21 49 21 1 15 43 3 1 21 1 1 1 49 1 1 21 21 1 50 21 49 1 49 49 1 21 49 35 1 21 1 49 3 39 3 49 49 0 49 20 49 42 49 21 21 0 20 20 49 1 49 0 21 1 21 42 39 49 1 21 50 21 21 19 23 21 21 39 49 49 49 3 49 1 49 49 1 39
split_gain=204068 208437 79855.5 72590.6 58890.1 42069.3 35408.2 35037.2 31760.2 25065.6 20925.8 19161.2 17000.3 16975.6 9721.2 9702.82 9529.67 9129.73 16172.1 8509.24 8199.99 8133.2 8915.5 7538.49 8426.21 7496.75 6879.81 6874.87 6869.12 6725.81 6718.89 6698.98 6479.7 6448.09 6181.92 5809.14 6846.6 5516.4 5395.38 5217.86 5200.49 4789.29 4475.11 4352.4 4304.61 4222.34 4053.53 4005.61 3946.03 3602.98 3528.78 3509.93 3400.66 3351.42 3375.71 3322.09 3292.38 3276.5 3121.34 3079.71 3072.69 3036.21 2996.72 2987.3 2926.41 2919.11 2797.3 2704.54 2585.4 2551.61 2484.01 2457.67 2380.58 2356.02 2346.09 2332.4 2302.35 2222.26 2123.83 2083.24 2074.72 2053.93 2046.89 2021.65 2006.02 1995.29 1973.88 1939.92 1931.37 1816.46 1781.2 1771.45 1759.94 1715.76 1687.45 1685.71 1669.65 1628.48 1616.51
threshold=1.0000000180025095e-35 1.5000000000000002 1.0000000180025095e-35 1.0000000180025095e-35 1.5000000000000002 7.5000000000000009 9.5000000000000018 8.5000000000000018 1.5000000000000002 0.12747707220836724 7.5000000000000009 -0.15172823068985777 9.5000000000000018 7.5000000000000009 1.0000000180025095e-35 -0.1953047606598112 0.24739583333333337 5.5000000000000009 4.5000000000000009 7.5000000000000009 1.0000000180025095e-35 6.5000000000000009 0.17350497736180626 10.500000000000002 9.5000000000000018 1.0000000180025095e-35 -1.0000000180025095e-35 1.0000000180025095e-35 8.5000000000000018 7.5000000000000009 7.5000000000000009 4.5000000000000009 10.500000000000002 0.23361358205555674 9.5000000000000018 6.5000000000000009 4.5000000000000009 7.5000000000000009 4.5000000000000009 1.0000000180025095e-35 9.5000000000000018 -0.13138658724266014 10.500000000000002 0.1327836588690815 -0.2413211172686606 10.500000000000002 7.5000000000000009 -0.22779105961171794 1.0000000180025095e-35 3.5000000000000004 5.5000000000000009 8.5000000000000018 0.3324153146997425 1.0000000180025095e-35 1.0000000180025095e-35 1.0000000180025095e-35 -0.20278096219345629 0.21354166666666669 1.5000000000000002 0.26218951948320501 1.5000000000000002 -0.26145682174298956 1.0000000180025095e-35 -0.35100950003811038 4.5000000000000009 2.5000000000000004 1.5000000000000002 -1.0000000180025095e-35 1.5000000000000002 -0.18697916666666664 9.5000000000000018 -0.16068808770513024 -1.0000000180025095e-35 9.5000000000000018 4.5000000000000009 7.5000000000000009 1.0000000180025095e-35 1.0000000180025095e-35 0.30677294955735396 7.5000000000000009 6.5000000000000009 -1.0000000180025095e-35 8.5000000000000018 5.5000000000000009 1.0000000180025095e-35 1.0000000180025095e-35 10.500000000000002 10.500000000000002 1.0000000180025095e-35 0.28909859676031829 -0.26664489977555933 0.28909859676031829 1.0000000180025095e-35 -0.30783710867907443 8.5000000000000018 0.21725727497765243 -0.29551849943845099 8.5000000000000018 1.0000000180025095e-35
decision_type=2 2 2 2 2 2 2 2 2 2 2 2 2 2 2 2 2 2 2 2 2 2 2 2 2 2 2 2 2 2 2 2 2 2 2 2 2 2 2 2 2 2 2 2 2 2 2 2 2 2 2 2 2 2 2 2 2 2 2 2 2 2 2 2 2 2 2 2 2 2 2 2 2 2 2 2 2 2 2 2 2 2 2 2 2 2 2 2 2 2 2 2 2 2 2 2 2 2 2
left_child=2 3 23 7 10 8 14 16 13 11 20 30 34 15 37 -5 27 18 26 79 35 22 31 24 25 48 62 60 78 38 50 41 40 53 46 36 43 44 64 49 96 -10 -14 69 -4 87 61 -16 67 65 74 -39 97 54 -17 98 -33 -38 94 -27 82 -7 -13 -32 77 76 -49 -1 -29 -3 -21 -22 -69 -30 84 -18 81 -11 -12 83 -20 -28 90 -19 -6 -55 -34 -8 -41 -23 -2 -15 -73 -37 -46 -66 -9 -31 -43
right_child=1 4 6 5 9 12 45 32 21 29 28 17 42 91 47 33 75 19 80 70 71 89 -24 -25 -26 59 39 68 73 52 63 56 86 -35 -36 93 57 51 -40 88 -42 55 -44 -45 58 -47 -48 66 -50 -51 -52 -53 -54 85 -56 -57 -58 -59 -60 -61 -62 -63 -64 -65 95 -67 -68 72 -70 -71 -72 92 -74 -75 -76 -77 -78 -79 -80 -81 -82 -83 -84 -85 -86 -87 -88 -89 -90 -91 -92 -93 -94 -95 -96 -97 -98 -99 -100
leaf_value=0.19259911495151164 -0.15943597814754096 -0.00073547028098775412 0.068019845254783051 -0.073357996604181797 -0.12933077437362514 -0.022807680865009308 -0.023371481106968413 -0.080028859915235423 -0.12422980878543236 0.093619713872198862 -0.10371230638394749 -0.03798038488856488 -0.11234637458493807 -0.12806246190037399 0.0073358452088088406 0.0040800127872308509 -0.034267474320058514 0.090244516160802007 -0.079987151834382708 -0.097659816095856916 -0.023455775503017359 -0.14673443133698383 0.0055067587643530883 -0.097902033155569723 0.075170823932936698 0.009158821584843671 -0.032159530584480484 -0.085065327915432726 0.09904989569060399 -0.11054526034814605 -0.087173848875858939 -0.098145512300220339 0.081115821575386909 0.065830541405069665 0.13070819440676357 0.0013098985144093384 -0.0043161166485146786 0.045795608438428795 0.12507247325059423 0.043173174531904009 -0.12715714611693044 -0.074595833926445337 0.040660346184089396 0.12355101263773122 0.11131747412881682 0.070772739235259785 -0.018695718302262833 0.06399535698727235 -0.065100394638726938 0.051235389966188073 -0.15685598492690356 0.13255301743481845 0.061913866599060806 0.039218071424845909 -0.040823318493935237 -0.051595636123851922 -0.0094137312788876819 0.096321984544228106 0.15024096717620838 0.075366267398788545 -0.16114024299893739 0.088526273430992147 -0.0051403954568002806 0.057398994343525737 -0.053288237322361341 -0.049749540447019423 0.11068332214562207 -0.20740765625075588 -0.12936468371805185 0.072953313349220644 0.061468046854987239 0.016172788035699361 -0.011658793220839011 -0.028055468956557136 -0.02945223173422646 -0.11120460657525658 0.018956702252369409 0.037532912935064312 0.023118334381876222 0.13980680057979797 -0.15103781616837109 -0.0030276306640574235 -0.17761898315918265 -0.0088179118290521441 -0.06833741660003495 -0.0041767959945245353 -0.038001259346660064 -0.093343536185718889 0.0019140415273732579 -0.035473266931535109 -0.11444094587617451 -0.032154605318257402 0.053638478432034321 0.1401405301890348 0.1667514259091728 0.046942825867741872 0.0013323312686041623 0.02348918501877139 -0.10091670540536754
leaf_weight=637.73920434713364 10983.564070165157 4948.4162331819534 10716.068598330021 19792.664949655533 10018.330409646034 2905.2008207440376 8348.3586789369583 3105.6974267363548 26450.552244901657 12985.530180871487 11357.307743430138 81913.613365888596 7205.8780188560486 14356.256977200508 8005.3644851446152 31212.221639335155 12766.533888041973 7841.3672612905502 13609.269622206688 3857.9346928596497 7338.8757674694061 18922.679676771164 13821.516029298306 8257.1102235913277 13509.52131074667 31814.711440384388 34109.922587037086 31628.464593172073 3219.6954969763756 3894.1840792298317 2070.9649426937103 5366.9091489315033 7381.3750480413437 14050.012161314487 13352.523968398571 946.73397368192673 16789.965779364109 14488.754734277725 12672.03548771143 35835.143382489681 5378.1589584946632 47794.690931200981 2601.7059583067894 17364.706050157547 50129.401409208775 3113.4472955465317 6907.8830633163452 31150.722680389881 22348.121690869331 10405.073862850666 7647.620541036129 6876.3835965394974 2565.7065677046776 19653.66730260849 36112.638685047626 35741.144973695278 18935.429460942745 4007.1821663975716 59483.243067324162 9017.0973585247993 65542.890489578247 15615.985652506351 42051.788147091866 4612.4219208955765 3865.1845701336861 16198.975783646107 21823.630569458008 632.73928898572922 22579.867767870426 93254.421388626099 1315.4777315855026 21164.641724824905 34292.919489264488 2665.704874932766 6871.383681178093 5699.4035204648972 31499.216781079769 15492.737738847733 1493.9747099876404 5548.1560807824135 5887.9003295898438 83317.339603602886 7966.1151495575905 2794.2026997208595 11677.552322328091 22990.110823273659 1714.220981657505 7541.3723396062851 16601.718966007233 1590.7230722308159 44214.751532435417 2224.2123485207558 30761.229273736477 14906.997654259205 6166.8956067562103 2965.1998050808907 13426.272719979286 1181.4799998998642 45590.728239893913
leaf_count=2551 43935 19794 42865 79172 40074 11621 33394 12423 105804 51943 45430 327660 28824 57426 32022 124851 51067 31366 54438 15432 29356 75692 55287 33029 54039 127261 136442 126516 12879 15577 8284 21468 29526 56201 53411 3787 67161 57956 50689 143343 21513 191182 10407 69460 200521 12454 27632 124605 89394 41621 30591 27506 10263 78616 144453 142967 75743 16029 237937 36069 262176 62465 168210 18450 15461 64797 87296 2531 90321 373024 5262 84660 137174 10663 27486 22798 125999 61972 5976 22193 23552 333275 31865 11177 46711 91962 6857 30166 66408 6363 176862 8897 123047 59629 24668 11861 53706 4726 182366
internal_value=-0.00822698 -0.0255236 0.0601498 -0.0663382 0.0115608 -0.0416799 0.0949703 -0.111243 -0.0530351 -0.00799565 0.0532958 -0.0160661 0.0458648 -0.0193849 0.106862 -0.00833848 -0.126479 -0.00913562 -0.0127914 0.0544439 0.0622696 -0.0782305 -0.0718895 -0.00568408 0.0010993 -0.00903476 -0.00788007 -0.13339 -0.0479931 0.0552202 -0.0795237 -0.0778364 -0.0122856 0.00203826 0.0756106 0.0745562 0.0678953 0.120717 0.0690973 0.00243025 -0.04174 -0.0854636 -0.0717575 0.0774007 0.128655 -0.0357153 0.0466795 0.073266 -0.0321714 -0.00583873 -0.0965251 0.0737185 -0.0319156 -0.00611208 -0.0200059 -0.0775227 -0.0290092 0.0150748 0.134268 0.0237798 -0.145972 0.0710626 -0.0268403 0.0126006 0.0490082 -0.00943515 0.0832292 -0.0114787 -0.103518 0.0692402 -0.0571973 0.030712 -0.0152051 0.0414794 -0.0803742 -0.0580137 -0.00505009 0.0631074 -0.0889681 0.090132 -0.101444 -0.0114898 -0.130233 0.0642186 -0.0965018 0.015823 0.0586662 -0.0565807 0.0301104 -0.138107 -0.123394 -0.115197 0.0383677 0.13185 0.11739 -0.00977603 -0.0139522 -0.0793456 -0.0874457
internal_weight=1.72546e+06 1.37711e+06 348354 655583 721527 423195 227844 232387 374606 491307 230220 435685 48589.2 160392 208840 143811 201382 392787 371430 21357.1 211483 214214 193701 120510 112253 98743.3 351933 182916 18736.7 55622.1 42898.3 179879 31005.7 124019 38781.6 152218 136365 147861 47980.7 227967 21910.1 155577 9807.58 115568 126496 19003.2 25429.1 60979.7 57911.5 175531 36214.9 21365.1 7641.37 109969 67324.9 129127 24302.3 20797.1 115780 40831.8 128707 18521.2 123965 6683.39 35308.7 165125 52974.4 35563.4 54208.3 98202.8 5173.41 59264.7 34925.7 5885.4 28567.3 18465.9 148926 28478.3 12851.3 16183.7 19497.2 117427 63164.4 10635.6 21695.9 42643.8 9095.6 15889.7 52436.9 20513.4 55198.3 16580.5 51925.9 15853.7 56296.3 6830.38 16532 5075.66 93385.4
internal_count=6901971 5508533 1393438 2622375 2886158 1692810 911390 929565 1498450 1965263 920895 1742771 194360 641578 835376 575255 805540 1571175 1485745 85430 845947 856872 774817 482048 449019 394980 1407755 731675 74948 222492 171596 719530 124025 496083 155129 608884 545468 591453 191926 911885 87642 622319 39231 462278 505991 76014 101718 243923 231650 702134 144862 85462 30566 439882 269304 516515 97211 83190 463126 163330 514838 74086 495870 26734 141237 660513 211901 142256 216837 392818 20694 237063 139705 23542 114271 73865 595716 113915 51406 64736 77990 469717 252662 42543 86785 170578 36383 63560 209751 82055 220797 66323 207707 63416 225189 27322 66129 20303 373548
is_linear=0
shrinkage=1


Tree=1
num_leaves=100
num_cat=0
split_feature=20 0 0 0 20 1 21 1 20 50 21 49 21 21 49 1 21 21 35 49 49 1 1 49 21 49 1 21 49 3 49 1 1 43 1 1 1 49 0 23 39 49 21 50 1 21 1 21 43 21 0 19 1 49 49 35 21 21 19 19 21 21 49 39 3 49 1 20 15 49 21 1 1 49 21 49 20 49 1 21 21 49 19 1 21 0 49 49 19 1 35 20 49 49 21 44 3 49 21
split_gain=165700 169276 65007.8 59241 47787.8 34139.1 29378.7 29123.9 25811 20757.6 17300.9 14352.7 14204.1 13808.1 10338.9 9012.8 10986 9459.93 8517.12 7996.54 7953.43 6990.78 6880.8 7051.63 6818.74 7504.42 6622.9 7928.53 6524.49 5954.65 5436.05 5196.93 5147.33 5108.54 5101.6 4640.37 4580.2 4410.98 4081.58 4108.08 3970.01 3918.58 3787.05 3731.99 3678.77 3597.51 3586.58 3584.57 3484.24 3269.74 3176.12 3069.54 2962.18 2941.07 2915.89 2901.04 2834.32 2827.23 2791.43 2640.19 2639.44 2556.03 2551.84 2479.64 2419.83 2376.91 2337.92 2333.59 2312.45 2248.52 2225.78 2783.13 2196.56 2147.07 2801.51 2138.27 2036.73 2015.88 1921.88 1895.76 1850.46 1826.73 1770.24 1736.03 1696.16 1692.36 1656.58 1642.77 1641 1614.31 1587.84 1569.2 1543.78 1543.35 1542.68 1541.03 1525.73 1507.16 1486.78
threshold=1.0000000180025095e-35 1.5000000000000002 1.0000000180025095e-35 1.0000000180025095e-35 1.5000000000000002 7.5000000000000009 8.5000000000000018 9.5000000000000018 1.5000000000000002 1.0000000180025095e-35 6.5000000000000009 -0.17669267810143699 8.5000000000000018 7.5000000000000009 0.17699154960761332 4.5000000000000009 3.5000000000000004 6.5000000000000009 1.0000000180025095e-35 0.26218951948320501 -0.21093103039610256 8.5000000000000018 5.5000000000000009 -0.14270815194217887 7.5000000000000009 0.15781383019896567 10.500000000000002 9.5000000000000018 -0.25104057832220072 1.0000000180025095e-35 0.19800406678001697 9.5000000000000018 5.5000000000000009 1.0000000180025095e-35 9.5000000000000018 6.5000000000000009 8.5000000000000018 -0.148774886812163 -1.0000000180025095e-35 1.0000000180025095e-35 1.0000000180025095e-35 -0.27811955827722307 8.5000000000000018 -1.0000000180025095e-35 8.5000000000000018 8.5000000000000018 9.5000000000000018 10.500000000000002 -1.0000000180025095e-35 10.500000000000002 1.5000000000000002 1.0000000180025095e-35 6.5000000000000009 -0.22343683490006974 -0.30159738748893788 1.0000000180025095e-35 9.5000000000000018 10.500000000000002 1.0000000180025095e-35 1.0000000180025095e-35 10.500000000000002 8.5000000000000018 -0.28404299444570247 1.0000000180025095e-35 1.0000000180025095e-35 -0.22779105961171794 6.5000000000000009 1.5000000000000002 1.0000000180025095e-35 0.28909859676031829 5.5000000000000009 2.5000000000000004 8.5000000000000018 0.19800406678001697 3.5000000000000004 0.24739583333333337 1.5000000000000002 -0.2413211172686606 5.5000000000000009 4.5000000000000009 9.5000000000000018 0.30075694363698108 1.0000000180025095e-35 10.500000000000002 9.5000000000000018 1.5000000000000002 -0.26145682174298956 0.30677294955735396 1.0000000180025095e-35 2.5000000000000004 1.0000000180025095e-35 -1.0000000180025095e-35 -0.36994288609414583 0.27259306555025137 9.5000000000000018 -1.0000000180025095e-35 1.0000000180025095e-35 0.25677161935995424 8.5000000000000018
decision_type=2 2 2 2 2 2 2 2 2 2 2 2 2 2 2 2 2 2 2 2 2 2 2 2 2 2 2 2 2 2 2 2 2 2 2 2 2 2 2 2 2 2 2 2 2 2 2 2 2 2 2 2 2 2 2 2 2 2 2 2 2 2 2 2 2 2 2 2 2 2 2 2 2 2 2 2 2 2 2 2 2 2 2 2 2 2 2 2 2 2 2 2 2 2 2 2 2 2 2
left_child=2 3 26 7 10 8 18 19 13 11 22 36 46 20 48 16 33 52 41 29 -5 45 23 -3 25 32 27 28 -1 35 55 -14 37 43 49 67 62 -10 -30 64 73 -4 86 82 98 69 54 83 -11 87 72 -39 79 -20 -7 59 -23 -33 -18 -22 -36 81 -6 -35 91 -24 76 -2 -42 -12 71 -50 75 74 -25 -43 -31 -34 -64 -17 -21 -16 -13 -9 -46 -55 -37 -8 -57 95 -53 -40 -38 -27 97 -45 -41 -15 -19
right_child=1 4 6 5 9 12 34 47 24 14 21 15 31 94 61 17 58 44 53 80 30 56 65 40 -26 93 -28 -29 38 66 -32 57 77 63 60 42 92 51 39 96 68 50 -44 89 84 -47 -48 -49 70 -51 -52 90 -54 85 -56 88 -58 -59 -60 -61 -62 -63 78 -65 -66 -67 -68 -69 -70 -71 -72 -73 -74 -75 -76 -77 -78 -79 -80 -81 -82 -83 -84 -85 -86 -87 -88 -89 -90 -91 -92 -93 -94 -95 -96 -97 -98 -99 -100
leaf_value=-0.047897164643581756 -0.11504865620613243 -0.0042401727516625581 0.05287555771263977 -0.063737118025388215 -0.13017797174578105 -0.045220923088191811 -0.013082340404144875 0.014105772220714172 -0.10708043679180551 -0.0062542005134215567 -0.031546248319488907 -0.048868100816143477 -0.085882144439824878 -0.091733626609488389 0.090142552128572861 0.072280571674004326 -0.1027432775157639 -0.042179099337949014 0.015599834824073983 -0.023919092847875606 -0.010824839056174235 0.11071518138342458 0.035176310474548646 0.084944426779447552 -0.13352053641154477 -0.014480152553058991 0.087789952960174639 -0.076843471590551923 -0.18968609968999869 -0.0730425240691049 0.057294988977131249 0.076174706111825752 -0.088980736594844262 0.030715522001738008 0.11186299452527407 -0.11054222647922916 -0.059540774311022095 -0.07753401165489103 0.1866300424418082 -0.029927992931220639 0.034051083618490068 0.091656368236953722 -0.14268028115924089 -0.030742354356909876 0.10333249615874203 -0.10362437545828407 0.13277516541273185 -0.071586691514397727 0.029933944300680373 -0.083658874441719919 0.13856517323711637 -0.035460008739650273 0.12271194135263837 0.066341826872922782 0.074909710834409823 -0.065468145276125253 -0.017849001821491278 -0.052933927311709317 -0.04161431596499373 0.027642428580494649 -0.0057261753284871871 0.0037673606510924967 -0.083722992147874209 -0.0014804114653818035 0.066075735666023969 0.12571869975750505 -0.032441427093608075 -0.1445947528981921 0.068137636207138391 0.097798985492139237 -0.037972923585493645 0.084837488802392974 0.1562969799906265 0.13243883641694745 0.033886448165755596 0.13756438093278864 -0.11431048688781165 0.0089471350574186984 -0.0036457164582587849 -0.0024418078664431467 -0.11518758953113982 0.15613654516694325 -0.010728748463109179 0.080543799329329521 -0.043632728523715678 0.10775667852036211 -0.048843432843036577 0.070308222179567795 -0.012612234201785054 0.028348561359353604 -0.065696773440348299 0.017407911027368946 0.077131606067194936 0.052180371904096683 -0.14045747572505352 -0.0025294665004854727 0.015139779907689142 0.0073013311429479246 -0.13621230676661061
leaf_weight=18524.951993376017 51069.414991825819 16194.939983561635 8307.5385006666183 17279.242942482233 9902.1360407620668 2249.2222022414207 13561.87827694416 8434.4082068055868 26537.201736629009 29151.688128814101 11702.503550365567 36836.36582441628 8058.1119938492775 9275.1698061972857 13254.957109719515 11665.917937427759 13103.007876008749 4337.3145191073418 7876.6484289467335 14411.651780545712 31346.989907830954 4808.5910089313984 3330.475141569972 58904.749313503504 12930.935125768185 13517.050095811486 8425.8272658586502 13228.867356792092 935.7337077409029 28318.758992731571 19403.137067630887 4763.0139611512423 2541.1793302744627 46130.910239294171 5323.2638073265553 5898.0418850183487 1264.8455266207457 69988.670567825437 558.34075462818146 15926.533274546266 44333.172916084528 47030.482533827424 8710.3513636887074 24983.947695985436 2103.4109749943018 7438.6377540379763 10901.869792252779 3159.7776795625687 52031.575791954994 6226.4274215698242 69958.489074215293 41651.053721934557 8687.5654411613941 25731.126792788506 19871.527308568358 7524.1703284680843 2665.2255005389452 2634.0826346874237 17377.236895114183 41415.606433808804 2976.0677917897701 2509.3212663829327 14454.559089794755 49686.794915378094 19078.020551607013 22401.170277103782 8088.433129966259 56092.318231374025 36115.770266517997 1518.3661538213491 3920.318514674902 11224.528789550066 8352.4604305624962 7329.6501677036285 13144.509633928537 12936.554106771946 20702.112571969628 12165.762220770121 3781.1569484323263 4789.2239021360874 2626.2847825884819 6136.0313841551542 18174.156160220504 7369.371300548315 1253.1762118637562 16003.638484477997 16598.126613780856 2860.6375340521336 26779.960179939866 13013.303601771593 29788.622032642365 29526.328579097986 2384.556961581111 4674.2233493626118 5404.4785988777876 86014.285593211651 14217.654848530889 1841.8256166279316 2745.9799179136753
leaf_count=74142 205135 64804 33266 69210 39738 8998 54290 33767 106531 116688 46897 147409 32294 37253 53133 46721 52509 17402 31522 57693 125408 19291 13343 235978 51979 54106 33757 52996 3765 113478 77678 19110 10193 184563 21343 23709 5069 280477 2249 63750 177499 188590 35037 99957 8433 29825 43794 12665 208215 24960 281224 166852 34868 103100 79610 30110 10663 10554 69616 165706 11924 10052 57981 198785 76348 89858 32423 225818 144612 6084 15727 44957 33592 29416 52625 51878 83152 48709 15155 19192 10539 24608 72717 29526 5018 64251 66623 11450 107143 52071 119325 118144 9547 18700 21693 344115 56897 7377 11017
internal_value=-1.38482e-06 -0.0155966 0.0616865 -0.0524338 0.0178276 -0.0301579 0.0931759 -0.0930963 -0.0403905 0.000207736 0.0554543 -0.0113739 0.0487996 -0.0100516 0.0367165 -0.00538149 -0.0109323 0.0422477 0.107459 -0.103692 -0.000100685 -0.0180102 0.0656984 0.0586376 -0.063134 -0.0586028 0.0022899 -0.00414253 0.00559499 -0.109419 0.00859379 -0.0303237 -0.0647024 -0.00461526 0.00262516 -0.120632 -0.07564 -0.0696695 0.0179443 0.0203941 0.0650088 0.119581 -0.0866962 -0.0145895 -0.0377695 -0.0479924 0.0858307 0.0256457 0.0226163 -0.021952 0.123588 -0.0626499 0.0754729 0.0716453 0.0626949 -0.000232068 0.0648681 0.0301995 -0.0678928 0.0110703 0.0696965 0.098736 -0.0893104 0.0140201 0.0382158 0.114 -0.0822518 -0.130514 0.0493535 -0.0166914 0.0351448 0.0396763 0.108252 0.0808752 0.0756295 0.10156 -0.0904705 -0.0079736 -0.0671191 0.0505328 -0.0379875 0.111026 -0.0362678 0.0450861 0.0484633 0.0822228 -0.0650196 0.00144346 -0.0242055 -0.00497314 -0.048068 0.0205485 0.0297624 0.00264818 -0.0966316 -0.00887974 -0.00867156 -0.0753259 -0.0786329
internal_weight=1.7224e+06 1.37483e+06 347567 654022 720806 422543 227145 231479 374065 490918 229888 372690 48477.8 160271 118228 340903 305320 35582.6 196197 212515 143749 28133.3 201754 176023 213795 200864 120422 111996 98767.6 195478 126470 15455.2 182672 274840 30948.3 138368 31787.3 167966 80242.6 79306.9 159828 146586 31206.5 179022 10439.9 20659.5 33022.6 18963.6 96328.1 22648.9 138278 141428 25142.7 49611.4 22120.7 107067 7473.82 7397.1 30480.2 72762.6 8299.33 21900.3 28137.9 95817.7 49162.7 25731.6 57109.3 107162 80448.9 13220.9 67176.4 63256.1 68319.5 79378.9 72049.3 59967 49020.9 14706.9 18235.7 16455.1 17037.9 19391 55010.5 15803.8 3356.59 41734.8 22496.2 16422.5 34304.1 124012 71439.7 30084.7 3649.4 18191.3 16521.5 110998 30144.2 11117 7083.29
internal_count=6901971 5508533 1393438 2622375 2886158 1692810 911390 929565 1498450 1965263 920895 1491883 194360 641578 473380 1364393 1221742 142651 787423 853607 575255 112760 808135 704934 856872 804893 482048 448291 395295 785375 506045 61958 732087 1099617 123967 556322 127490 673185 321153 317388 640130 588550 125369 716269 41870 82806 132402 75958 385587 90700 555284 566654 100781 198873 88608 428367 29954 29664 122125 291114 33267 87793 112874 383348 196741 103201 229053 430953 322111 52981 268899 253172 274060 318019 288603 240468 196630 58902 73136 65913 68232 77741 220126 63293 13451 167351 90332 65740 137253 496143 286177 120393 14616 72806 66323 444072 120647 44630 28419
is_linear=0
shrinkage=0.1


Tree=2
num_leaves=100
num_cat=0
split_feature=20 0 0 0 20 1 1 21 20 49 21 21 49 21 15 23 21 1 1 21 49 1 23 49 21 1 1 21 35 1 21 21 1 1 50 49 21 49 21 1 49 0 21 49 1 49 1 49 1 1 49 20 43 49 49 49 15 1 1 19 49 15 49 21 21 21 1 1 20 39 49 39 0 21 21 49 19 0 49 49 49 19 49 49 1 49 39 19 21 19 1 1 21 49 1 20 21 39 21
split_gain=135122 137987 53435.5 48874.6 38908.5 28223.2 24239.8 24229.1 20102.6 17808.6 14834 14073.6 13737.3 10254.4 7516.94 7363.38 6979.26 11779.4 6426.81 6276.32 6269.79 6116.23 6015.44 5945.74 5731 5728.04 5712.65 5510.62 5900.15 5300.59 4898.64 4387.73 4298.45 4235.74 4175.49 3996.31 3897.83 3840.08 3644.74 3469.97 3421.39 3285.76 3279.48 3264.68 3233.33 3387.19 3129.33 3090.76 3074.98 3016.77 2945.81 2935.75 2872.62 2834.33 2804.65 2713.83 2677.91 2539.61 2483.8 2740.69 2474.06 2445.94 2327.55 2297.35 2212.64 2205.02 2160.35 2139 2129.53 2103.98 2097.35 2035.2 2020.67 1998.82 1988.26 2213.47 1925.43 1916.7 1866.85 1838.6 1830.37 1792.57 1790.63 1779.17 1762.95 1747.39 1712.76 1712.53 1679.8 1654.89 1602.65 1598.49 1587.01 1528.44 1522.63 1499.7 1482.8 1461.53 1407.76
threshold=1.0000000180025095e-35 1.5000000000000002 1.0000000180025095e-35 1.0000000180025095e-35 1.5000000000000002 6.5000000000000009 8.5000000000000018 9.5000000000000018 1.5000000000000002 0.15167459948826312 8.5000000000000018 6.5000000000000009 -0.11300136405829588 6.5000000000000009 1.0000000180025095e-35 1.0000000180025095e-35 5.5000000000000009 3.5000000000000004 6.5000000000000009 5.5000000000000009 -0.17000492173563589 9.5000000000000018 1.0000000180025095e-35 0.11458333333333336 2.5000000000000004 8.5000000000000018 9.5000000000000018 9.5000000000000018 1.0000000180025095e-35 6.5000000000000009 6.5000000000000009 6.5000000000000009 5.5000000000000009 10.500000000000002 1.0000000180025095e-35 0.21354166666666669 9.5000000000000018 -0.2413211172686606 8.5000000000000018 8.5000000000000018 -0.25624579778017575 -1.0000000180025095e-35 3.5000000000000004 -0.30783710867907443 9.5000000000000018 0.25252722675234257 3.5000000000000004 0.30075694363698108 3.5000000000000004 10.500000000000002 0.097346978754585131 1.5000000000000002 1.0000000180025095e-35 -0.25104057832220072 -0.20676521022007313 0.27760525501113259 1.0000000180025095e-35 6.5000000000000009 9.5000000000000018 1.0000000180025095e-35 -0.18020639849867762 1.0000000180025095e-35 -0.1181686728477218 10.500000000000002 6.5000000000000009 8.5000000000000018 7.5000000000000009 10.500000000000002 -1.0000000180025095e-35 1.0000000180025095e-35 0.17031407205301799 1.0000000180025095e-35 1.5000000000000002 8.5000000000000018 8.5000000000000018 -0.22779105961171794 1.0000000180025095e-35 1.5000000000000002 -0.20278096219345629 0.27760525501113259 0.23805977188273728 1.0000000180025095e-35 0.25252722675234257 0.27259306555025137 1.5000000000000002 -0.32102663541960774 1.0000000180025095e-35 1.0000000180025095e-35 3.5000000000000004 1.0000000180025095e-35 11.500000000000002 3.5000000000000004 10.500000000000002 -0.27811955827722307 5.5000000000000009 1.5000000000000002 11.500000000000002 1.0000000180025095e-35 10.500000000000002
decision_type=2 2 2 2 2 2 2 2 2 2 2 2 2 2 2 2 2 2 2 2 2 2 2 2 2 2 2 2 2 2 2 2 2 2 2 2 2 2 2 2 2 2 2 2 2 2 2 2 2 2 2 2 2 2 2 2 2 2 2 2 2 2 2 2 2 2 2 2 2 2 2 2 2 2 2 2 2 2 2 2 2 2 2 2 2 2 2 2 2 2 2 2 2 2 2 2 2 2 2
left_child=2 3 27 6 11 8 14 15 13 12 25 22 29 20 51 31 17 24 -18 23 -5 98 32 46 34 40 38 28 41 37 48 54 42 36 52 61 -8 -6 66 83 -7 -1 50 -31 45 68 56 -32 -11 96 -3 74 89 -17 -4 95 62 88 59 -30 -48 69 -10 -23 -42 -20 82 -29 -43 -22 -44 84 -55 -45 75 -2 91 -56 -24 -15 -21 -70 -13 -33 -36 -27 -54 -26 97 -14 -35 -39 -28 -34 -53 -16 -9 -19 -12
right_child=1 4 7 5 9 10 33 49 19 30 21 26 16 79 55 53 18 57 65 80 35 63 78 -25 87 85 92 67 58 43 47 39 93 90 71 -37 -38 76 -40 -41 64 44 70 73 -46 -47 60 -49 -50 -51 -52 94 86 72 77 -57 -58 -59 -60 -61 -62 -63 -64 -65 -66 -67 -68 -69 81 -71 -72 -73 -74 -75 -76 -77 -78 -79 -80 -81 -82 -83 -84 -85 -86 -87 -88 -89 -90 -91 -92 -93 -94 -95 -96 -97 -98 -99 -100
leaf_value=-0.17585994479922409 -0.12287208404853041 0.063331926347121884 0.072539137837196455 -0.050250879911069357 -0.1108019804323933 -0.048858461919082691 -0.0020433280052405104 -0.0336001460760465 -0.10759846237769549 0.055188255229736596 -0.068200717821668103 -0.043737682810252976 -0.019462577649331913 -0.089081326228101443 -0.058304121348328741 0.0032718851032932476 -0.096078643718000373 0.099735716788679013 0.065039625895452369 -0.11476377505640221 0.011718174551677688 0.068791124436505313 -0.028301043354061681 -0.0046823040978826828 -0.058597994160167866 0.011816026337038548 0.11421280003990174 -0.069390429601414477 -0.076750059288549666 -0.061729179355486788 -0.049902255573565868 0.040384934653228892 0.012911119986115792 0.038740563326721947 0.028516404572629789 0.058587328142400488 -0.10048981460389042 -0.092144721083970607 -0.087112456553494755 0.12567238557898297 0.064804840515957723 0.17992535607274607 0.016001256194786494 0.076108117880707135 0.096199479634017246 0.072437195198247345 -0.082109581956381447 0.062306384899664446 0.11696294289838589 0.066571934135927394 0.10734862784522743 -0.13138582879813418 0.027605637300951277 0.056738561648481192 0.10743171202085476 0.0031073957489675414 -0.039188267767526215 0.12253107250290343 0.054505196253815363 -0.012190484306030439 -0.013350805522081295 0.025083826920302157 -0.066983573181967085 -0.047714583985375078 0.0011671003473115464 -0.04969232623519676 0.067394334181076071 0.028759803076233121 -0.021737383183650365 -0.025581838658491243 0.084624921522466034 0.0026479691427856514 0.096121272194661739 -0.060090070446188137 -0.13737235516753091 -0.078426338857308486 -0.024421511189163372 0.13533980666126857 0.037368271697832411 -0.0036010651632109323 -0.03402005846049317 0.022467258968357731 0.062264169986566503 0.10455201644520934 0.079031296315512728 0.11109990248469095 -0.0022451429681713537 -0.017194965115121794 0.015935616001937509 0.0022559318344263684 0.16197273064839149 -0.031905758045671272 -0.03305804242319306 0.12173273407590793 -0.097951424921760594 -0.095371714490312121 -0.16285778268464782 0.041834548279789024 -0.14676707759838484
leaf_weight=766.45269070565701 14488.399829089642 79992.878772720695 12929.305364519358 20928.572523742914 12837.505902573466 4446.0605129152536 16507.267672240734 14889.373768433928 17116.242791742086 21006.762251704931 8645.3993034511805 9494.8149289637804 90635.632675647736 17373.189810097218 28731.167620405555 6578.4581159353256 13462.38542111218 7754.379693582654 4408.8469281494617 22956.503052145243 26577.440535709262 4747.5501078516245 4717.8973339796066 22748.763329342008 18928.662569478154 1968.2197538018227 3717.9201295375824 13186.745096683502 8474.3747084587812 3880.0843265503645 5609.0817955583334 18751.778131365776 1389.8549267798662 7822.6855148375034 33002.382889017463 14410.452102676034 5317.3295678496361 11897.09975130856 8816.3667897582054 9784.6650242954493 18493.18127797544 736.65122801065445 19752.585633635521 6015.6034580916166 7050.9095952212811 11506.639856621623 6869.1359720975161 4365.1746802479029 13072.162910908461 3099.8328532576561 18772.532517313957 55245.277983531356 38686.672547996044 31949.203049600124 46912.434049755335 5307.1962475031614 28330.963074713945 5596.0879040956497 4188.2892787456512 29348.362813070416 21970.760795757174 30583.258058443666 80337.895018711686 2630.1778134852648 7754.6640169173479 2701.5464498996735 3168.0822870284319 2669.9518533051014 13443.088316187263 35086.843551427126 5750.2545060813427 24213.233787000179 21998.874362081289 1312.6627874225378 9569.7451710551977 49444.121513083577 18448.226317450404 51761.573250293732 52513.302007958293 2942.4253415167332 3198.6955927014351 28884.497696384788 1915.0072217285633 5614.9732275903225 8738.0347097665071 17843.773303240538 38201.895347744226 21155.809245973825 10010.710922420025 57241.732424497604 1219.9103022068739 6995.1930911839008 911.01999768614769 18088.171620056033 18078.178874582052 17601.417697876692 943.75804017484188 9957.5212279707193 3097.8204786628485
leaf_count=3151 58847 321566 52109 84015 51948 17870 66129 59759 69271 84332 34893 38063 362780 70127 115881 26329 54231 31108 17752 92891 106330 19110 18877 91186 75906 7957 15006 52996 33979 15642 22555 75600 5571 31475 132162 57832 21513 47880 35577 39782 74211 3003 79140 24195 28329 46129 27748 17575 52876 12454 75815 225702 154791 128452 189944 21285 113909 22687 16820 117541 88201 122392 323183 10554 31205 10874 12767 10710 53785 140469 23224 96887 89142 5275 39005 199742 73986 211332 210583 11813 12884 115605 7701 22686 35026 72218 152819 84726 40167 229037 4908 28139 3646 73359 73529 71549 3801 39907 12541
internal_value=-2.27643e-06 -0.0141001 0.0558848 -0.0474775 0.0160866 -0.0272465 -0.0846218 0.0846234 -0.0387704 0.000187335 0.0309188 0.0501162 -0.00580283 -0.0107141 -0.0974432 0.0945603 0.00120723 0.00440884 -0.0554589 -0.0591587 -0.000207005 -0.0440977 0.0593732 -0.0524154 -0.00129932 0.0593192 -0.0162734 0.00206353 0.0104062 -0.0497334 0.0608437 0.106735 0.0702895 -0.00218419 0.00358812 0.00961267 -0.0260288 -0.0636214 -0.0363572 0.0753705 0.0322628 0.0299142 0.0634433 0.0124411 0.0324736 0.0242398 -0.0594379 -0.000794804 0.0788841 -0.0236424 0.0716983 -0.108985 -0.00290377 0.0652414 0.116333 -0.0646271 -0.0662498 0.0610822 -0.0185641 -0.0266554 -0.0297279 0.00196209 -0.0741169 0.0272566 0.0460037 0.021448 -0.00566159 -0.0528639 0.0113616 -0.00950545 0.0314742 0.025712 0.072798 0.0517119 -0.0948618 -0.0884986 -0.0474009 0.122072 0.0319548 -0.0767007 -0.104889 0.00842802 -0.0259465 0.0551713 0.0390913 0.101237 0.0127744 -0.0367463 0.0486781 -0.0110556 0.0553655 -0.0698402 0.0852285 0.113968 -0.123142 -0.0723858 -0.0413047 0.067184 -0.0889262
internal_weight=1.715e+06 1.36953e+06 345470 650391 719136 421058 229333 225214 351431 490135 69626.8 229001 446082 147902 198466 206281 384696 364123 20572.8 203529 127587 19120.9 200977 177374 330804 50505.9 28023.2 120256 104399 61386.4 44053.2 145755 143746 30867.2 290720 106658 21824.6 50178 23394.3 34151.4 30693.9 62388.2 124268 11208.4 61621.8 54570.9 154625 9974.26 34078.9 18933 98765.4 146826 224766 60526.5 111603 51639.8 125785 33318.7 42011 37822.7 28839.9 92247.5 97454.1 7377.73 26247.8 7110.39 14577.9 15856.7 43064.2 61664.3 25502.8 65953.7 53948.1 7328.27 73502.3 63932.5 37340.5 98674 57231.2 20315.6 26155.2 42327.6 11409.8 24366.8 41740.4 19812 76888.6 40084.5 27722.6 147877 9042.6 18892.3 4628.94 19478 73323.5 46332.6 15833.1 17711.9 11743.2
internal_count=6901971 5508533 1393438 2622375 2886158 1692810 929565 911390 1412251 1965263 280559 920895 1787925 592978 805540 835376 1540860 1458003 82857 819273 511038 77098 808135 713498 1324134 203461 112760 482048 418342 247065 177338 591453 578675 124025 1163502 427023 87642 201953 94108 138068 123286 250002 499745 45112 246851 218522 622312 40130 137208 76014 397381 596825 899427 243923 453385 208715 506363 133869 168340 151520 115949 369191 392454 29664 105416 28626 58531 63706 172393 246799 102364 264075 217594 29470 297594 258589 150005 401276 229460 81940 105775 169390 45764 98286 167188 80175 307610 160632 111182 591817 36383 76019 18652 78930 299231 187430 63560 71015 47434
is_linear=0
shrinkage=0.1


Tree=3
num_leaves=100
num_cat=0
split_feature=20 0 0 20 0 21 21 1 0 50 1 49 1 1 21 1 49 1 39 49 1 49 39 49 21 19 49 20 21 1 49 21 21 21 49 49 1 49 21 35 15 43 1 49 1 49 43 21 49 15 21 0 21 49 19 21 1 1 1 21 20 19 1 23 21 1 21 1 49 1 1 49 21 21 21 49 3 23 1 49 49 49 21 42 23 35 0 49 21 23 0 49 39 1 1 1 49 39 23
split_gain=110545 112782 44212.1 40928.9 32258.7 22093.1 20800.1 20281.6 17105.2 15053.5 11638.5 11216.7 10711.2 10285.7 7114.53 9912.02 6873.15 6757.86 6545.16 6310.85 6046.26 6470.85 5439.39 5261.31 5246.44 4907.11 4904 4806.72 4853.93 5160.05 5119.96 4806.17 4292.69 4280.7 3927 3851.44 3737.88 3694.61 3581 3394.42 3214.86 3093.11 3075.11 2860.63 3573.96 2793.01 2785.56 2754.33 2748.39 2725.89 2593.38 2461.19 2405.78 2258.57 2242.55 2236 2225.87 2216.3 2211.13 2199.22 2126.48 2097.29 2065.55 2043.9 1985.27 1982.73 2182.28 1881.96 1845.55 1795.02 1772.93 1754.24 1753.61 1734.65 1685.72 1676.77 1629.65 1621.55 1605.1 1584.65 1563.85 1551.8 1524.33 1468.49 1445.93 1414.95 1403.14 1392.65 1388.81 1327.91 1324.12 1316.21 1307.43 1306.6 1302.69 1299.91 1293.51 1283.79 1283.09
threshold=1.0000000180025095e-35 1.0000000180025095e-35 1.0000000180025095e-35 1.5000000000000002 1.5000000000000002 7.5000000000000009 8.5000000000000018 9.5000000000000018 1.5000000000000002 -1.0000000180025095e-35 6.5000000000000009 0.19427839128147301 6.5000000000000009 9.5000000000000018 5.5000000000000009 4.5000000000000009 -0.19911227362298387 7.5000000000000009 1.0000000180025095e-35 0.24270833333333336 7.5000000000000009 -0.17669267810143699 1.0000000180025095e-35 0.14890548815791199 5.5000000000000009 1.0000000180025095e-35 0.13013360034056148 -1.0000000180025095e-35 10.500000000000002 9.5000000000000018 0.23361358205555674 8.5000000000000018 5.5000000000000009 9.5000000000000018 0.17699154960761332 -0.2413211172686606 9.5000000000000018 -0.21883567690055236 8.5000000000000018 1.0000000180025095e-35 1.0000000180025095e-35 -1.0000000180025095e-35 6.5000000000000009 -0.17343610933746542 3.5000000000000004 0.30075694363698108 1.0000000180025095e-35 10.500000000000002 0.058850478387614848 1.0000000180025095e-35 10.500000000000002 1.5000000000000002 8.5000000000000018 -0.30159738748893788 1.0000000180025095e-35 9.5000000000000018 7.5000000000000009 8.5000000000000018 6.5000000000000009 10.500000000000002 1.5000000000000002 1.0000000180025095e-35 9.5000000000000018 1.0000000180025095e-35 10.500000000000002 4.5000000000000009 2.5000000000000004 8.5000000000000018 -0.27811955827722307 8.5000000000000018 9.5000000000000018 0.30075694363698108 8.5000000000000018 8.5000000000000018 7.5000000000000009 -0.30159738748893788 1.0000000180025095e-35 1.0000000180025095e-35 8.5000000000000018 -0.079166666666666677 0.26744746318916962 0.24739583333333337 7.5000000000000009 1.0000000180025095e-35 1.0000000180025095e-35 1.0000000180025095e-35 -1.0000000180025095e-35 -0.21883567690055236 5.5000000000000009 1.0000000180025095e-35 -1.0000000180025095e-35 0.24739583333333337 1.0000000180025095e-35 5.5000000000000009 11.500000000000002 4.5000000000000009 0.37344031155465501 1.0000000180025095e-35 1.0000000180025095e-35
decision_type=2 2 2 2 2 2 2 2 2 2 2 2 2 2 2 2 2 2 2 2 2 2 2 2 2 2 2 2 2 2 2 2 2 2 2 2 2 2 2 2 2 2 2 2 2 2 2 2 2 2 2 2 2 2 2 2 2 2 2 2 2 2 2 2 2 2 2 2 2 2 2 2 2 2 2 2 2 2 2 2 2 2 2 2 2 2 2 2 2 2 2 2 2 2 2 2 2 2 2
left_child=2 7 27 5 10 8 18 19 12 16 24 14 23 33 15 22 70 74 75 25 21 -10 41 35 26 58 43 -1 29 30 40 57 34 45 39 -3 59 69 71 65 53 83 60 -5 61 56 79 86 -43 89 -15 67 -44 -29 97 -19 -7 87 -2 -8 82 -45 -33 -56 -38 66 -23 76 -14 -20 -6 88 -60 -21 93 -4 -39 -17 -70 95 -26 -34 85 -11 -25 -27 -9 -12 -13 -24 -55 -77 -92 -16 -88 -18 -40 -37 -63
right_child=1 3 6 4 9 13 36 47 20 11 31 38 68 50 17 77 46 55 37 73 -22 32 49 84 80 42 -28 28 -30 -31 -32 62 81 -35 -36 54 64 51 96 -41 -42 48 52 44 -46 -47 -48 -49 -50 -51 -52 -53 -54 90 63 -57 -58 -59 72 -61 -62 98 -64 -65 -66 -67 -68 -69 78 -71 -72 -73 -74 -75 -76 91 -78 -79 -80 -81 -82 -83 -84 -85 -86 -87 94 -89 -90 -91 92 -93 -94 -95 -96 -97 -98 -99 -100
leaf_value=0.17965187966154139 -0.11904575981112411 -0.067326849904526434 0.040523206827600355 -0.088169472059540455 -0.098697043271077797 -0.069480329588735221 -0.0010718121526215973 -0.20949708450794713 -0.016672472483419923 -0.016502396389032153 -0.048649948563755284 0.081834628596553549 -0.00023540543230268459 0.084051733714135574 -0.07594885487689032 0.091550104384308273 -0.064019227642335419 0.077094280213612393 0.0098917885467726344 -0.017106509093609872 0.12019783174950166 0.063987943049932827 -0.011352636659087229 0.054144716687612816 -0.10338723014665446 -0.046989353736604414 0.00028316770433247919 -0.078187307558830549 -0.075278123911873274 0.063810087041939648 0.041528143531264529 -0.092587504772477652 -0.012345884738602583 -0.10992219178832896 0.099636002880057112 -0.008834190658790507 0.095691008482364184 0.041388072988721915 -0.067834925606324967 0.02299853248170923 0.010903935133755122 0.018129994186937951 -0.018782043112050204 -0.068902105311936454 -0.011245624699798281 0.057576039594605471 0.0042805815258243887 -0.063537919103281298 0.058346440628691223 0.0086069833663985039 -0.033782852609571 0.099753883311424055 -0.10505714892111279 -0.16386244110015982 0.023278634300186757 -0.059139524396383869 0.0013934877496854538 0.083827263032364208 -0.063060590926619184 -0.071175196211679448 -0.10346714779724792 -0.027199570462177011 0.016023751174452108 -0.013163010856596671 -0.0067253885869299939 0.096576515285070316 0.031014613436782898 0.1240477347665901 0.058160232961136607 0.09876387994720251 0.023683367926998142 0.12169217179106398 -0.12874800715261733 -0.086428953756767166 -0.12019093677488313 0.10672975966762728 0.078101271890885532 0.03169190965582417 0.11428804504634776 -0.021721661823170056 -0.016965768034620157 0.074179299838626797 -0.11914461327135294 0.022492657856721249 0.0064298035411403474 -0.083306883761958855 0.035408392229114606 0.032045924138365815 0.01302188996275833 -0.036556932106395185 0.0088583940184685465 0.13875176743328399 -0.031090298135320705 0.00036090578382356781 0.15733615955136615 0.0056925243923007345 0.056601316708614471 -0.047704081599767204 -0.056853113783128177
leaf_weight=1501.6328931897879 63821.736417174339 11441.716359138489 3322.3854049742222 20420.737984240055 15990.58020567894 16351.696793675423 16374.87574903667 223.71275989711285 14401.118837028742 33178.844534993172 2692.1538473069668 12114.600209102035 3353.5788089782 7101.669230312109 8576.5136242061853 15416.019071921706 19135.744924128056 4663.4591207057238 12042.312552809715 15543.410891190171 12275.603364124894 75729.959181055427 55324.803514420986 17317.526679649949 23521.458434715867 21620.02836830914 19196.60318878293 8361.4554848670959 8066.0458471775055 13174.651567533612 20491.050343051553 4809.4005587399006 12611.996939212084 12723.237915799022 19585.001195907593 18759.318653672934 5230.6325581669807 23259.420497253537 2281.3419805467129 31731.214198321104 29863.066885367036 95219.250559404492 13483.600931897759 56360.107475295663 22123.829403907061 2689.1171829253435 29810.552509889007 3132.2207873910666 20684.385390102863 48444.833798795938 2534.2779866009951 38395.3868406564 4251.1265653520823 636.68568477034569 31487.9030392766 1624.4145282953978 6078.5448568314314 7431.7717690318823 14729.331935703754 6157.8141683936119 36545.852778509259 29519.357235088944 2753.4755892902613 30106.768757835031 2965.8907683044672 13082.370980829 27310.068308889866 5151.3734952360392 13404.990433886647 2801.3732421398163 1278.4143525063992 8366.5301352888346 5612.866111651063 4701.4468650221825 6310.8010717183352 65578.671336606145 25179.448462963104 6406.3677614033222 8218.9194073081017 45621.595056459308 2298.4891072660685 2480.4242803752422 5918.8983319103718 13622.107991829515 10028.874707251787 21293.508128747344 14561.950448706746 10402.068020343781 3869.8624744564295 33597.952322661877 11987.409319192171 15959.773592308164 25878.23448947072 3038.8063251823187 932.37249791622162 3109.522622615099 1317.9717609137297 15532.56892426312 28854.814626842737
leaf_count=6188 265407 46178 13424 83590 65282 66582 65740 901 57762 132915 10868 49122 13554 28934 34810 62541 77072 18850 48441 62581 50383 306215 221521 69589 96512 88083 76919 33591 32657 53223 82343 19664 50720 52080 79869 75080 21343 94537 9186 127636 119586 381542 54649 228595 88871 10806 119642 12665 83199 194007 10179 158791 17489 2696 126127 6533 24498 30458 60003 24960 151773 119052 11119 120550 11924 53201 110069 21216 53941 11318 5156 34251 23327 19241 25747 271199 102273 25907 33784 183084 9263 10092 24297 54556 40286 86757 58564 41871 15631 134646 47987 66224 103777 12225 3828 12546 5292 62337 116471
internal_value=-2.37347e-06 -0.0127704 0.050793 7.62707e-05 -0.0143655 0.0250301 0.0771836 -0.0772232 0.0332947 0.000169411 -0.0452166 0.00989554 0.00864368 -0.0391776 0.00497457 0.00890684 -0.0314814 -0.0473 0.0894276 -0.0862444 0.0521066 0.0478621 0.00417465 -0.00251116 -0.0535919 -0.091978 -0.047432 0.00186202 -0.000391717 0.00508 -0.00287891 0.0151016 0.0529537 -0.0626645 0.0575579 -0.0124881 0.000805205 0.0729585 0.0708319 0.0519841 -0.0147385 0.0165456 -0.0773536 -0.0532558 -0.0480463 -0.038728 -0.0211996 0.0220914 0.0253071 -0.0104781 0.0530609 0.080429 -0.0394627 -0.0310786 -0.00594443 0.0418995 -0.0502737 0.0402103 -0.109895 -0.0202299 -0.0852243 -0.0551425 -0.0530446 0.00546638 0.0586319 0.0599046 0.0552486 0.0665835 0.0687888 0.0266642 -0.0896373 0.0845932 -0.0811852 -0.0332052 -0.0785882 0.11016 0.0604723 0.0739776 0.0794936 -0.0323918 -0.095694 0.00187444 -0.0715715 -0.00515231 0.036646 -0.06501 0.0391553 0.015455 0.065175 -0.0208757 -0.0208481 0.112998 -0.0184434 -0.0559847 0.0427454 -0.0542747 -0.0222697 -0.0264404 -0.0418576
internal_weight=1.70448e+06 1.3621e+06 342380 1.13573e+06 719390 416338 222419 226372 368860 489005 230384 374059 159652 47478.5 346109 321895 114946 24214 191690 207522 209208 196932 300072 134675 202295 187277 176475 119960 118459 110393 97217.9 28088.9 182531 37842.6 167439 107328 30729.2 106829 27950.3 147854 76726.9 162705 103113 157279 136858 25119.4 97677.4 18850.3 115904 137368 9635.95 91985.6 17734.7 46863.8 95886.6 6287.87 22430.2 20526 84163.9 22532.7 85378.3 114734 7562.88 61594.7 8196.52 116122 103040 53590.2 24977.5 14843.7 17269 24351 20342.2 20244.9 17926.1 84860.8 48438.9 21822.4 21623.9 67866.9 25819.9 15092.4 48832.4 46801 27346.4 42913.5 15718 13094.2 15984.5 88922.8 38502.3 81538.4 37865.6 11615.3 15494.3 22245.3 3599.31 34291.9 58374.2
internal_count=6901971 5508533 1393438 4578968 2898516 1680452 911390 929565 1487373 1965263 933253 1502481 641426 193079 1388999 1290834 462782 98165 787423 853607 845947 795564 1202386 540147 819273 771785 713498 482048 475860 443203 389980 113980 737802 153966 676990 430272 123967 436576 113482 597121 307637 652212 423048 636579 552989 101886 392344 75958 464741 550174 39113 376817 72138 188051 384094 25383 91080 83197 348737 90700 350910 464118 30783 246677 33267 469485 416284 218026 101279 59759 70438 99004 83330 81822 72782 350847 196810 88448 87725 272702 105775 60812 199137 187471 109875 174840 63293 52739 64753 356167 154460 337423 151764 47035 62392 89618 14478 137417 235523
is_linear=0
shrinkage=0.1


Tree=4
num_leaves=100
num_cat=0
split_feature=20 0 0 20 0 21 21 1 0 49 1 1 49 1 35 15 1 21 1 21 3 49 35 1 21 3 44 49 1 21 49 21 21 49 35 21 1 1 20 21 35 0 1 50 49 44 1 23 21 1 15 1 42 49 49 49 1 3 1 49 19 1 43 21 23 49 1 21 21 21 35 1 21 43 49 20 1 49 49 21 49 21 21 0 21 1 23 1 1 21 49 1 21 49 49 49 49 21 23
split_gain=90636.7 93185.6 36752.8 33361.8 26396.5 18461.2 17364.1 17311.5 14484.8 12864.4 9533.16 9509.25 8836.23 6584 6061.59 6051.57 6043.25 9165.67 5273.93 6619.01 4905.03 4812.06 4526.94 4344.9 4313.44 4254.9 4219.87 4045.55 4001.99 3928.84 3709.26 3666.08 3352.71 3270.73 3255.12 3131.72 3116.4 3054.59 2840.64 2874.56 2868.81 2785.63 2765.28 2753.85 2600.79 2560.64 2398.2 2210.49 2200.15 3154.73 2198.65 2180.47 2122.48 2113.93 2102.55 1978.67 1978.24 1964.86 1949.94 2133.6 1913.42 1891.95 1855.06 1841.79 1831.71 1816.48 1807.82 1804.82 1734.57 1728 1724.69 1722.4 1710.13 1707.16 1693.37 1679.28 1642.9 1635.96 1631.66 1583.13 1516.35 1501.15 1489.42 1460.95 1435.34 1457.37 1405.21 1385.79 1382.54 1377.42 1344.87 1329.29 1307.6 1293.15 1283.36 1278.33 1235.07 1218.54 1471.72
threshold=1.0000000180025095e-35 1.0000000180025095e-35 1.0000000180025095e-35 1.5000000000000002 1.5000000000000002 8.5000000000000018 8.5000000000000018 8.5000000000000018 1.5000000000000002 0.081585331049474505 7.5000000000000009 6.5000000000000009 -0.20278096219345629 9.5000000000000018 1.0000000180025095e-35 1.0000000180025095e-35 5.5000000000000009 3.5000000000000004 7.5000000000000009 5.5000000000000009 1.0000000180025095e-35 -0.2413211172686606 1.0000000180025095e-35 2.5000000000000004 6.5000000000000009 1.0000000180025095e-35 -1.0000000180025095e-35 -0.042895226278832015 10.500000000000002 8.5000000000000018 0.25252722675234257 6.5000000000000009 5.5000000000000009 0.15469003947012216 1.0000000180025095e-35 9.5000000000000018 8.5000000000000018 9.5000000000000018 -1.0000000180025095e-35 9.5000000000000018 1.0000000180025095e-35 1.5000000000000002 5.5000000000000009 1.0000000180025095e-35 0.30677294955735396 -1.0000000180025095e-35 4.5000000000000009 1.0000000180025095e-35 8.5000000000000018 5.5000000000000009 1.0000000180025095e-35 10.500000000000002 1.0000000180025095e-35 0.3469831088915899 0.21354166666666669 0.27760525501113259 9.5000000000000018 1.0000000180025095e-35 8.5000000000000018 0.23805977188273728 1.0000000180025095e-35 9.5000000000000018 -1.0000000180025095e-35 6.5000000000000009 1.0000000180025095e-35 0.24270833333333336 10.500000000000002 10.500000000000002 5.5000000000000009 4.5000000000000009 1.0000000180025095e-35 11.500000000000002 11.500000000000002 -1.0000000180025095e-35 -0.09746802685486454 1.5000000000000002 3.5000000000000004 -0.10519841730466011 -0.23217687654673283 10.500000000000002 -0.25624579778017575 11.500000000000002 5.5000000000000009 -1.0000000180025095e-35 6.5000000000000009 5.5000000000000009 1.0000000180025095e-35 10.500000000000002 9.5000000000000018 5.5000000000000009 -0.26664489977555933 2.5000000000000004 9.5000000000000018 -0.28987017258390785 -0.25624579778017575 0.32615606377167067 0.33975178488513907 8.5000000000000018 1.0000000180025095e-35
decision_type=2 2 2 2 2 2 2 2 2 2 2 2 2 2 2 2 2 2 2 2 2 2 2 2 2 2 2 2 2 2 2 2 2 2 2 2 2 2 2 2 2 2 2 2 2 2 2 2 2 2 2 2 2 2 2 2 2 2 2 2 2 2 2 2 2 2 2 2 2 2 2 2 2 2 2 2 2 2 2 2 2 2 2 2 2 2 2 2 2 2 2 2 2 2 2 2 2 2 2
left_child=2 7 25 5 11 8 14 15 10 12 21 20 36 53 41 44 17 23 19 22 31 -3 33 27 -18 28 84 60 38 61 32 34 42 62 46 51 82 67 -1 40 83 58 50 68 48 -29 74 -22 49 75 70 94 73 79 -21 97 -26 93 59 90 -14 80 -10 76 -27 69 -31 95 -28 91 -23 -37 -39 -47 -5 -2 -19 -24 -51 -7 -13 87 -6 -40 85 -11 -25 -15 -12 -43 -4 -45 -67 -16 -9 -8 -85 98 -17
right_child=1 3 6 4 9 13 37 35 18 26 88 29 16 81 57 55 24 63 -20 54 47 30 77 86 56 64 43 45 -30 66 -32 -33 -34 -35 -36 71 -38 72 39 -41 -42 89 -44 65 -46 52 -48 -49 -50 78 -52 -53 -54 -55 -56 -57 -58 -59 -60 -61 -62 -63 -64 -65 -66 92 -68 -69 -70 -71 -72 -73 -74 -75 -76 -77 -78 -79 -80 -81 -82 -83 -84 96 -86 -87 -88 -89 -90 -91 -92 -93 -94 -95 -96 -97 -98 -99 -100
leaf_value=0.16389233289553273 -0.085612888481228125 -0.05941517744143246 0.010479454544486609 -0.080288811858827899 -0.059881773618405965 -0.072328649395435193 -0.012289188305312101 -0.048577249457432713 0.031717170331360789 0.0048805573012466463 0.053614903461758914 -0.048997041022711268 -0.052163577010573184 -0.0050305517583975681 -0.033610347119021514 -0.03306789746262305 0.079415266689559741 -0.06556946858385107 0.10420660611963335 -0.027134103399685274 -0.00084405112917085778 2.97174316851771e-05 -0.019337200998446106 0.041466643524380314 -0.043215409614551142 0.043323178805086938 0.036534082562163089 -0.019200992690203995 0.062004688281802722 -0.071156141496902789 0.055528154219548834 -0.11073310897618852 -0.038282341662403241 0.095654463735902348 -0.081955969580260357 -0.064671621589836248 0.024805660786882525 0.063859887008382632 -0.15563245290452452 -0.074316231280947415 -0.041712959788927556 0.11510654819407402 0.053863669448329446 0.047102291523672103 -0.026795594616808374 -0.016741150448834657 -0.003194022234919958 -0.04050235722769574 -0.13218759995280427 -0.10045083554018577 0.021306001749473474 0.070197952826944701 0.029370620957111668 0.028289279471364739 0.050041243903190473 0.0057011559295585155 0.080462781871501646 0.070842833182252166 0.12151993805874402 0.10797574901863244 -0.013825469760942592 0.099302520939985484 0.058774400590486359 -0.11093784950091604 0.0020631342753391099 0.11434442329893438 0.057158838443195609 -0.064685789462759005 -0.035310217506270329 -0.0036188762916238015 -0.036964217850048546 0.14236407467202092 -0.14590847271535465 0.0074537106885046028 -0.044097461240411737 -0.11277477500461085 -0.01535664430065798 0.029212077324476227 -0.048276102978033919 -0.13681264865402143 0.034666525327135447 -0.16205780124242483 -0.11553262228991688 0.00048305313419126709 -0.047126303305773325 0.092324175457183411 0.0011859175598847175 0.084482066157049063 0.11008115869400381 0.082640399213260524 0.06789001208633641 0.098465028195233215 -0.0094377790677661402 0.039186803235874174 0.015826110759250701 0.067969190342617461 0.067745373774370163 -0.11300551902682579 -0.070920458243351983
leaf_weight=830.69330462813377 42772.364454180002 13243.827342435718 4494.2875549793243 15775.490900576115 16033.585545822978 16300.542066037655 14064.729095906019 4129.3227568566799 36483.643803343177 19050.363430470228 12939.971501290798 2564.3282168060541 23228.514063283801 3373.2366710007191 2769.4075208604336 18640.275942608714 14483.052529111505 17073.369527518749 14439.879640728235 16885.072439834476 23988.943724319339 42040.280929401517 8857.5733529478312 28365.05139566958 5631.4101680666208 25999.135968580842 16167.233190044761 53291.665379434824 6531.2765526622534 6152.1917895376682 12548.822434708476 12315.13965383172 20674.061624184251 18539.049352452159 30994.960381478071 7729.5823258757591 3494.8315457105637 7713.3147744834423 567.04723225533962 9143.1406179666519 22875.072038054466 51312.746078699827 10741.761798173189 14521.972684383392 5792.1678010225296 40443.160652533174 12138.226364344358 33938.657621368766 14392.075113788247 8281.2531692385674 32269.527601912618 5975.5757850259542 31428.922413229942 1706.4690292626619 4463.2232650220394 5296.2111380547285 1678.8279469758272 25143.370190352201 9224.4118281751871 13158.210769429803 29616.155267253518 3877.0137018412352 82952.214417785406 5266.2872619479895 18356.308853134513 9353.3518666476011 1336.5291318297386 6101.0105537772179 4242.3239948302507 4406.9531610608101 17997.333568707108 423.8665899336338 409.26254923641682 104554.47279317677 71632.304833978415 48652.354737088084 10537.712952882051 32073.478329017758 21700.702216401696 4967.5084873139858 13958.201900139451 384.82250545918941 6869.7360219657421 32325.328721269965 4763.5717673897743 2117.8529948741198 12467.073635563254 3549.3799911439419 6521.3563333302736 17533.086361840367 44302.822390034795 7716.0509025454521 939.09579758346081 20525.802815899253 12341.475648239255 2310.5821018517017 2981.7212370932102 3811.6515997201204 22878.276563763618
leaf_count=3587 178089 53836 18181 65211 65749 67282 56428 16638 148235 76780 52786 10389 93505 13736 11115 76887 59358 69020 60288 67989 97276 168451 35555 114086 22873 104804 65193 213445 26610 25385 50755 51773 83502 76895 126744 31797 14117 31614 2501 37167 92104 218834 43100 58487 23574 161996 49029 137823 61660 34750 129348 24364 125847 6935 18216 21285 6791 103453 39205 55190 118656 16301 337481 21874 73676 38890 5398 24960 17259 17888 72287 1735 1653 418806 291417 208935 42474 129474 89817 20814 56507 1549 28673 129602 19370 8800 49990 14445 27493 73976 183164 31553 3783 84305 49491 9312 11997 15900 94643
internal_value=-3.13513e-06 -0.0115824 0.0462625 6.84995e-05 -0.0129904 0.0226692 0.0706044 -0.0706884 0.0286021 0.000152794 0.00670061 -0.0410241 -0.00721652 -0.0525003 0.0819487 -0.0818097 -0.00331084 -0.0064378 0.0458398 0.0416311 -0.0486241 -0.00186874 0.0479113 -0.00132365 0.0478081 0.00168081 0.0359437 -0.00572988 -0.0127992 0.0136926 0.00372402 -0.058577 -0.00153031 0.0565753 -0.0536566 -0.000828163 -0.0631524 0.000732449 -0.0199084 -0.0221573 -0.0140398 0.0924967 0.00584302 0.0510808 -0.0924195 9.08872e-06 -0.0448453 -0.0240791 -0.0952186 -0.0908361 0.000254873 0.0184529 0.00581171 -0.0787977 -0.0109993 -0.0521363 -0.0148122 0.0514567 0.0786254 0.0722389 -0.0306774 0.0364339 0.0505093 -0.0567426 0.0262479 0.0673699 -0.0482555 -0.0182612 0.0216005 0.0535873 -0.0110599 -0.0539086 0.0532905 0.00070521 -0.0506293 -0.100067 -0.0464058 0.0187059 -0.0626872 -0.08739 0.0216818 0.0301783 -0.076574 0.00360599 0.00246863 0.0136292 0.0291679 0.0408646 0.0725364 0.106838 0.0626024 0.0649239 0.10305 0.0305325 -0.000320178 -0.000964605 0.00616343 -0.0588939 -0.0539261
internal_weight=1.69186e+06 1.35318e+06 338673 1.13037e+06 716415 413953 219063 222817 383671 487743 168977 228672 404464 30282 188464 192217 378066 356272 214694 200254 200784 149516 178906 323395 21793.3 119610 83278.8 282563 75254.3 27888.3 136272 142856 123723 137975 130541 30599.8 26398.2 30598.9 68723 67892.3 58749.2 140026 103049 57347 141591 229718 99546 57927.6 135799 121407 92307.1 22446.4 176427 22974.5 21348.3 50626.4 7310.24 48438.6 71179.7 61955.3 52844.7 20399.5 119436 32877.4 44355.4 36937.4 7488.72 22476.3 20409.6 26645 60037.6 8153.45 8122.58 144998 87407.8 91424.7 27611.1 40931.1 29982 21268.1 16522.5 7307.44 22903.3 35874.1 25931.8 21168.2 40832.1 6922.62 19461.3 68845.8 48797.1 22238 10292.4 23295.2 16470.8 16375.3 35307 45330.2 41518.6
internal_count=6901971 5508533 1393438 4578968 2898516 1680452 911390 929565 1555691 1965263 681558 933253 1627260 124761 787423 805540 1518721 1429699 874133 813845 819273 601279 727640 1296331 89022 482048 338003 1132255 303568 113980 547443 584174 496688 562611 532401 124025 108539 123967 276958 273371 236204 588550 413186 233053 596825 920094 405657 235099 573251 511591 370086 90493 706649 95031 86205 208715 29664 198873 295740 256535 212161 83197 485716 133368 178480 150601 30783 90700 82452 107928 240738 33532 33267 580802 356628 387024 111494 165029 124567 88096 66896 29730 94422 144100 104950 85580 164076 28181 80279 292810 201345 90040 42673 95420 66129 65740 141599 187430 171530
is_linear=0
shrinkage=0.1


Tree=5
num_leaves=100
num_cat=0
split_feature=20 0 0 20 0 21 21 1 35 49 1 49 1 1 0 23 3 21 1 1 21 21 0 1 3 21 23 49 21 21 21 21 43 15 49 21 1 21 1 49 21 1 1 49 39 49 49 50 21 1 21 3 23 43 49 1 1 21 19 49 19 49 20 1 49 20 19 3 19 1 1 20 49 49 49 0 1 49 49 1 49 49 42 49 0 21 21 1 1 21 21 21 21 49 1 1 49 21 1
split_gain=74416.9 77191.8 30661.2 27206.2 21606.4 15276.7 14607.1 14533.2 11904.4 10982 9557.65 8312.66 8031.33 7438.28 6320.1 5574.16 5418.37 5290.55 9544.04 5025.83 4192.51 4085.26 3986.6 3949.52 3884.66 3831.01 3770.01 3740.98 3687.85 3541.65 3275.23 3273.57 3136.5 3036.21 3024.72 2804.13 2780.91 2748.16 2650.38 2636.4 2578.72 2499.5 2389.57 2387.54 2321.33 2314.66 2295.65 2272.93 2271.94 2262.59 2237.57 2230.2 2156.6 2101.64 2093.16 1910.08 1885.23 1872.11 1836.34 1731.36 1678.81 1676.19 1668.62 1651.24 1618.59 1617.26 1608.16 1586.89 1560.97 1558.65 1516.27 1490.4 1487.14 1473.62 1431 1409.73 1386.5 1393.36 1384.46 1367.43 1313.96 1310.09 1308.85 1308.54 1298.16 1271 1269.02 1250.05 1247.68 1298.37 1228.06 1218.24 1191.99 1303.79 1191.25 1170.38 1165.67 1165.48 1140.69
threshold=1.0000000180025095e-35 1.0000000180025095e-35 1.0000000180025095e-35 1.5000000000000002 1.5000000000000002 6.5000000000000009 9.5000000000000018 8.5000000000000018 1.0000000180025095e-35 -0.086173791695696847 8.5000000000000018 0.21354166666666669 5.5000000000000009 6.5000000000000009 1.5000000000000002 1.0000000180025095e-35 1.0000000180025095e-35 4.5000000000000009 2.5000000000000004 7.5000000000000009 4.5000000000000009 7.5000000000000009 -1.0000000180025095e-35 7.5000000000000009 1.0000000180025095e-35 9.5000000000000018 1.0000000180025095e-35 0.092913365355127689 10.500000000000002 4.5000000000000009 10.500000000000002 6.5000000000000009 -1.0000000180025095e-35 1.0000000180025095e-35 0.29480309428456514 8.5000000000000018 8.5000000000000018 4.5000000000000009 8.5000000000000018 0.10937826503362134 10.500000000000002 3.5000000000000004 10.500000000000002 0.28333907737395525 1.0000000180025095e-35 -0.19114559147883356 0.21725727497765243 1.0000000180025095e-35 8.5000000000000018 10.500000000000002 7.5000000000000009 1.0000000180025095e-35 1.0000000180025095e-35 1.0000000180025095e-35 -0.17343610933746542 8.5000000000000018 10.500000000000002 9.5000000000000018 1.0000000180025095e-35 -0.22343683490006974 1.0000000180025095e-35 0.21354166666666669 1.5000000000000002 4.5000000000000009 -0.30783710867907443 -1.0000000180025095e-35 1.0000000180025095e-35 1.0000000180025095e-35 1.0000000180025095e-35 5.5000000000000009 10.500000000000002 -1.0000000180025095e-35 0.26218951948320501 -0.12074535881447419 -0.35100950003811038 1.5000000000000002 8.5000000000000018 -0.21093103039610256 0.29480309428456514 6.5000000000000009 0.12208964573060917 -0.25104057832220072 1.0000000180025095e-35 0.24739583333333337 1.5000000000000002 6.5000000000000009 10.500000000000002 3.5000000000000004 4.5000000000000009 2.5000000000000004 2.5000000000000004 2.5000000000000004 7.5000000000000009 -0.28404299444570247 6.5000000000000009 11.500000000000002 -0.2413211172686606 1.5000000000000002 7.5000000000000009
decision_type=2 2 2 2 2 2 2 2 2 2 2 2 2 2 2 2 2 2 2 2 2 2 2 2 2 2 2 2 2 2 2 2 2 2 2 2 2 2 2 2 2 2 2 2 2 2 2 2 2 2 2 2 2 2 2 2 2 2 2 2 2 2 2 2 2 2 2 2 2 2 2 2 2 2 2 2 2 2 2 2 2 2 2 2 2 2 2 2 2 2 2 2 2 2 2 2 2 2 2
left_child=2 7 22 5 12 8 15 16 13 23 25 17 20 14 33 31 46 18 32 50 27 55 -1 29 45 34 30 53 70 41 42 54 58 80 67 94 78 39 -23 81 49 66 43 65 88 -10 62 82 74 -9 63 76 72 73 98 59 71 -21 90 -14 -28 -22 92 -19 -15 -24 -6 79 -67 -47 -12 -8 -18 -5 -25 -56 77 -17 -33 -7 -3 -16 97 -39 -26 -79 -40 91 89 -20 -11 -83 93 -2 -13 -30 -43 -34 -4
right_child=1 3 6 4 9 10 56 40 24 11 28 35 21 64 37 51 52 19 44 57 61 38 26 48 84 -27 60 -29 95 -31 -32 36 47 -35 -36 -37 -38 83 86 -41 -42 96 -44 -45 -46 69 -48 -49 -50 -51 -52 -53 -54 -55 75 -57 -58 -59 -60 -61 -62 -63 -64 -65 -66 68 -68 -69 -70 -71 -72 -73 -74 -75 -76 -77 -78 85 -80 -81 -82 87 -84 -85 -86 -87 -88 -89 -90 -91 -92 -93 -94 -95 -96 -97 -98 -99 -100
leaf_value=-0.16604472163162998 -0.10800563762366072 -0.0079862037830986821 0.042749071736566627 -0.079218835296310852 -0.06595829761087052 -0.071362606781175453 0.21936730769646676 -0.0070320047183536245 -0.070102779615988195 -0.023359273342785102 0.040196648649542942 0.064033819783461551 -0.048346075505186423 0.0025382777558309345 -0.030076716860050243 -0.03330655740313767 -0.038713139143718142 -0.057443428380153774 0.076444318222827989 0.078193447289087836 -0.088808272344991709 -0.083257903874998138 0.15318568186296389 -0.037211733595001323 0.0015427722407337077 -0.10094412522924601 -0.055784967733775226 -0.0026963293579197324 -0.068365931922978504 -0.087692956419949994 -0.052447470472914037 0.026408819797285141 0.00016599707145802245 0.041383453072058402 0.049345418889003949 -0.019621066184468919 0.10284948634120959 0.0012113829796364739 0.034991502052944413 0.083049778095273516 -0.072365730920290944 -0.049347718496999558 0.090866216618598797 0.060826919045602092 0.024271157330840995 -0.020845602895433316 -0.049169079307077979 0.025176219973292915 -0.051873956015529403 0.058881635562971095 -0.10698528288905534 0.065195685881705767 -0.06776535045237414 -0.02742360845695645 0.08527452296520753 0.076668715739227261 0.052277361640958468 -0.052532648792260488 -0.00099251777367581531 0.025396788939923177 -0.0091331541794862307 -0.02127416048323056 -0.10326018036061252 -0.0012947396950689269 0.097800685216184555 -0.017718292449301832 -0.026034384076604286 -0.0075833872373310927 0.019354496888655457 0.036437330262779705 0.11077589409806923 -0.037512536413595303 0.028955548890845596 -0.047836736641937501 0.087909714854508172 0.11051114722554488 0.088055550235515812 0.039862962945746656 0.088181091034713277 -0.02213232191664629 0.028382939907809226 0.048281699120022066 0.018815869544429889 0.085406100150353118 0.033982812137232532 -0.030655641134149283 -0.073334965989634557 0.073005445246211095 0.10297205972417212 0.026073602480647225 -0.079680654099451298 0.01669251506029298 -0.11023071244335148 -0.064665242186413424 0.12105982219263674 0.16352095579543541 0.019828625337839134 -0.027266639870842366 0.1013862911988047
leaf_weight=1403.1832240968943 8466.6939722448587 44994.504862472415 11662.737037688494 18954.715771079063 17974.163484171033 16600.241776183248 229.21798068284988 18957.288421064615 8412.3986505568027 46339.233415976167 10600.633666560054 16386.90039396286 3904.3620676100254 1924.6211728751659 2227.902227923274 4346.1211641728878 23347.710571452975 14795.282290533185 11301.443489298224 4730.9912506192923 26719.245052322745 7170.3765245825052 771.11336362361908 1130.007721811533 24428.806200772524 10037.396469295025 10037.782518997788 23743.243307620287 3307.0727118700743 13730.409277960658 6198.4176931977272 19205.943209782243 94501.431580111384 25661.221230730414 4119.9106100350618 3520.6636446267366 9205.5724426358938 15883.820093885064 4314.9292926937342 23413.382146388292 4315.2673079967499 3106.4500626623631 4884.5591837614775 10918.369191482663 26188.295333489776 30066.376871034503 14547.943746700883 51336.406141415238 2370.4443727582693 7180.3409189730883 5823.9936555325985 31328.627996429801 31512.572528392076 42313.487874388695 42497.509628430009 5776.3587929606438 3042.4794968962669 1425.5900416821241 49667.252610430121 17251.677623331547 33316.429304823279 4261.2833616137505 58097.410913720727 8107.7781434357166 24340.212285265326 16836.944823041558 22999.526826843619 10028.565891832113 34898.992805317044 5641.2906319648027 4269.9102862328291 15422.967528820038 3772.4663157612085 71054.710132151842 4783.2131131142378 46195.217123135924 3196.642436504364 16890.557471081614 4473.2868416309357 8547.0756929516792 12748.373212084174 65883.065539956093 31169.433887675405 2088.6654035747051 24919.150905132294 3011.5691360980272 1443.1139127910137 16018.17100943625 6818.2859653234482 9351.8703394830227 4224.3585520684719 14985.175793334842 10172.50560413301 38518.021849870682 4717.7795226424932 232.9919998049736 11284.682059124112 18522.678029149771 4636.464053183794
leaf_count=6078 36619 180623 48673 79436 73560 67978 931 76561 34236 185854 44055 67889 16031 7814 8926 17478 97485 60312 45786 19479 111985 30229 3478 4616 98410 42869 40755 95801 13580 57637 25453 79351 378409 103362 16724 14247 39782 64158 17817 98195 17938 12843 20193 44265 105793 121174 60377 206381 9592 29526 24465 130626 132165 173586 180889 24389 12454 5776 198957 69700 133977 17431 256302 32973 102653 67655 92858 40927 140194 23212 18062 62629 15241 290923 19597 204272 13294 70138 18935 34812 51382 270066 124897 8785 100926 12387 5925 65671 28410 37859 17022 60917 44692 162659 20119 935 45645 74287 19551
internal_value=-3.8436e-06 -0.0105133 0.0421924 6.17239e-05 -0.0117509 0.0205414 0.06472 -0.0648454 0.0290976 0.000138196 -0.0228604 0.00667511 -0.0372317 0.0404743 0.0345685 0.0727502 -0.075204 0.00306601 0.00677323 -0.0340684 -0.0459166 0.00352244 0.0015168 -0.0344079 -0.00135255 -0.0458063 0.00351166 -0.0392462 0.0386256 -0.0422304 0.0171542 0.0837425 -0.000266343 0.0127626 -0.0317224 0.0629989 0.05621 0.0475131 -0.0426839 0.0528694 -0.000748533 -0.0309558 0.0234699 0.0182795 0.0455737 -0.0229132 -0.0866008 0.0071067 0.0308411 0.0110753 -0.0516402 0.0469634 -0.0499736 -0.0458045 0.092366 0.025703 -0.01975 0.0479231 -0.0146496 0.0117875 -0.0199344 -0.0795191 -0.0913256 -0.0375666 0.0908201 0.00943214 -0.043548 -0.0412173 0.00728953 -0.0117957 0.0604627 -0.0337507 -0.0293003 -0.0544454 0.0639992 0.0984189 0.0261511 0.0179902 0.0380783 -0.0546302 4.33131e-05 0.04574 0.00067351 0.010996 0.017924 0.0291922 0.0078421 0.0474834 0.0658812 0.0536363 -0.0280647 0.0424281 -0.0791947 -0.0724752 0.0767815 -0.0531041 0.00489631 -0.00432973 0.059429
internal_weight=1.6781e+06 1.34349e+06 334611 1.1246e+06 713216 411381 215345 218888 343637 486309 67743.8 408930 226908 250169 223904 196650 188435 384304 349421 34883.6 187047 39860.8 119266 77378.9 93468 49333.2 117863 156066 18410.6 69095.2 74508.4 137877 295761 83404.1 39295.8 24625.3 32884.8 140500 12928.4 122528 30452.9 55364.8 68310 63425.4 53659.9 44120.1 129803 195530 8283.67 26137.6 28727.1 58773.5 58632.7 132323 104992 26932.4 18694.7 6156.58 100231 21156 43354.2 30980.5 115255 22903.1 26264.8 52507.1 40973.7 35175.9 51735.9 35707.7 14870.5 15652.2 27120.2 90009.4 5913.22 88692.7 27444.9 24248.2 23679.2 25147.3 57742.9 99114.3 144194 17972.5 49348 19902.1 5758.04 96886.4 27471.6 20653.3 50563.6 80868.2 57157.2 46984.7 21104.7 3540.06 14391.1 113024 16299.2
internal_count=6901971 5508533 1393438 4578968 2898516 1680452 911390 929565 1400510 1965263 279942 1648915 933253 1022552 912085 835376 805540 1546660 1403655 143005 769162 164091 482048 316348 377958 203310 475970 639746 76632 282543 301238 591453 1185807 335367 160441 102255 138068 576718 53971 503775 124025 224906 275785 255592 217848 178622 560649 783974 33805 106087 117750 243923 244891 543945 453385 110120 76014 25255 401833 85731 174732 129416 500272 93285 110467 211327 166418 143717 207849 144386 62117 63560 112726 370359 24213 385161 113297 100003 98286 102790 232005 405580 577593 72943 199336 82525 23742 396654 112055 83645 202876 330983 243970 199278 88008 14515 58488 452696 68224
is_linear=0
shrinkage=0.1


Tree=6
num_leaves=100
num_cat=0
split_feature=20 0 0 43 49 1 21 20 1 21 42 21 50 21 49 1 39 15 49 21 0 23 1 0 49 23 49 21 1 21 21 39 0 39 49 1 1 1 49 1 49 49 0 21 1 49 19 42 3 1 21 1 1 1 21 21 19 1 1 21 3 49 19 21 21 20 49 49 21 49 1 21 20 21 49 15 21 1 1 1 39 1 1 1 21 21 20 21 41 21 3 0 19 49 1 15 19 21 1
split_gain=61168.1 64010.1 25632.3 23942 15587.7 12686.9 12582.4 11306.2 9881.44 11380.1 8413.02 6911.68 6516.1 5717.64 5078.73 5736.78 5012.56 4987.88 4852.03 4640.35 4428.5 4088.81 4054.14 3846.61 3774.7 3748.86 3532.8 3908.31 3322.36 3203.58 2987.39 2807.29 2770.35 2599.63 2496.3 2477.81 2406.51 2376.54 2375.95 2306.97 2269.63 2234.53 2221.51 2178.31 2039.46 2033.03 1998.37 1980.56 1965.72 1936.6 1931.59 1924.55 1909.96 1820.71 2275.14 1815.7 1767.71 1766.41 1759.9 1727.37 1622.47 1589.1 1568.82 1553.72 1549.15 1495.28 1466.08 1449.14 1444.15 1433.1 1425.2 1673.01 1421.22 1420.97 1415.26 1409.75 1381.51 1627.95 1332.41 1303.18 1242.26 1240.56 1202.97 1115.71 1082.9 1056.92 1056.56 1054.12 1050.49 1048.18 1034.98 1032.63 1021.12 1001.74 1000.22 995.648 972.754 950.783 938.811
threshold=1.0000000180025095e-35 1.0000000180025095e-35 1.0000000180025095e-35 -1.0000000180025095e-35 0.11719904854481276 7.5000000000000009 8.5000000000000018 1.5000000000000002 8.5000000000000018 6.5000000000000009 1.0000000180025095e-35 8.5000000000000018 -1.0000000180025095e-35 5.5000000000000009 -0.15468417450236219 4.5000000000000009 1.0000000180025095e-35 1.0000000180025095e-35 0.30075694363698108 9.5000000000000018 1.5000000000000002 1.0000000180025095e-35 8.5000000000000018 1.5000000000000002 -0.22779105961171794 1.0000000180025095e-35 -0.30783710867907443 8.5000000000000018 8.5000000000000018 9.5000000000000018 4.5000000000000009 1.0000000180025095e-35 1.5000000000000002 1.0000000180025095e-35 0.26744746318916962 9.5000000000000018 5.5000000000000009 6.5000000000000009 0.38526447981962275 10.500000000000002 -0.17000492173563589 0.33975178488513907 1.5000000000000002 8.5000000000000018 9.5000000000000018 0.18705553217669679 1.0000000180025095e-35 1.0000000180025095e-35 1.0000000180025095e-35 5.5000000000000009 7.5000000000000009 9.5000000000000018 10.500000000000002 1.5000000000000002 2.5000000000000004 8.5000000000000018 1.0000000180025095e-35 9.5000000000000018 4.5000000000000009 10.500000000000002 1.0000000180025095e-35 0.22947394261184353 1.0000000180025095e-35 9.5000000000000018 1.5000000000000002 -1.0000000180025095e-35 -0.3596971499876272 -0.3272678077354006 4.5000000000000009 -0.28404299444570247 5.5000000000000009 8.5000000000000018 1.5000000000000002 2.5000000000000004 0.23805977188273728 1.0000000180025095e-35 5.5000000000000009 7.5000000000000009 4.5000000000000009 6.5000000000000009 1.0000000180025095e-35 10.500000000000002 5.5000000000000009 9.5000000000000018 6.5000000000000009 7.5000000000000009 1.5000000000000002 3.5000000000000004 1.0000000180025095e-35 11.500000000000002 1.0000000180025095e-35 -1.0000000180025095e-35 1.0000000180025095e-35 0.3469831088915899 10.500000000000002 1.0000000180025095e-35 1.0000000180025095e-35 11.500000000000002 1.5000000000000002
decision_type=2 2 2 2 2 2 2 2 2 2 2 2 2 2 2 2 2 2 2 2 2 2 2 2 2 2 2 2 2 2 2 2 2 2 2 2 2 2 2 2 2 2 2 2 2 2 2 2 2 2 2 2 2 2 2 2 2 2 2 2 2 2 2 2 2 2 2 2 2 2 2 2 2 2 2 2 2 2 2 2 2 2 2 2 2 2 2 2 2 2 2 2 2 2 2 2 2 2 2
left_child=2 5 26 8 7 17 16 13 9 10 14 18 24 25 62 23 74 40 30 66 49 60 55 56 83 36 -1 28 34 35 31 -6 44 53 65 69 42 -32 57 59 -2 43 -5 79 45 67 73 88 -23 68 58 -29 -31 64 -55 82 -16 -13 72 93 78 86 -3 -24 -22 -28 -10 -18 -14 -7 84 -72 -42 98 76 -67 -4 -78 87 92 -20 -21 -15 -9 -56 -51 -19 -12 -26 -41 -27 -37 -11 -8 -68 -69 -44 -53 -25
right_child=1 3 6 4 11 29 39 12 19 41 21 38 20 22 15 -17 32 61 80 81 33 48 63 46 47 90 27 51 -30 52 37 -33 -34 -35 -36 91 -38 -39 -40 89 50 -43 96 -45 -46 -47 -48 -49 -50 85 -52 97 -54 54 70 -57 -58 -59 -60 -61 -62 -63 -64 -65 -66 75 94 95 -70 -71 71 -73 -74 -75 -76 -77 77 -79 -80 -81 -82 -83 -84 -85 -86 -87 -88 -89 -90 -91 -92 -93 -94 -95 -96 -97 -98 -99 -100
leaf_value=-0.046169280787084169 -0.10405901719008803 -0.084798396470538454 0.091362925612928192 0.013791198445437023 0.077217063118317095 -0.072872349171600861 -0.0032717040169996971 -0.087258595214618415 -0.037657623864781047 -0.095707677854363682 0.0090038418962455798 -0.067231375006251926 -0.021944429230647485 -0.042361700529363493 -0.059544804979741697 0.023938498035626921 -0.039025225397368433 -0.039527939560903058 0.11951250279801051 -0.066852109348168029 0.016948728570736593 -0.036538459025008629 0.075110115006982503 -0.028058291971502326 -0.036110732562587303 -0.010476892691172576 0.15114396734567992 -0.048105441011926715 0.066496257921394755 -0.087507660312989982 8.8322401889901254e-05 0.03453498131345796 0.07524248866256375 -0.0037354137357206163 0.048462518737113679 -0.19624009273092149 0.08304333644125772 0.071576941772192273 0.071709633585996746 0.080243978119001413 -0.059460492538024816 0.03234008335397786 0.035756304286152799 -0.10459748197265313 0.11076145220928973 0.069459075735837858 -0.00093316480796864099 0.0087770172707607053 0.00052247176627584989 0.03940891300322736 -0.1070284812486027 0.028720673274130484 0.0078341753315009748 0.064074145588865331 0.0050886519869576888 -0.08561613984771628 -0.029517821082776747 0.040594321126611488 -0.042165793223918634 -0.052734828763209507 0.040592414530252259 -0.00313093288237048 -0.041116827966756503 -0.018734159355109265 -0.020811033481550164 -0.014777517478899927 0.065507442428667267 0.017150589845731024 -0.070791597666286551 -0.0052769589948834152 0.081525331511052901 -0.040488566722585176 -0.091906568482110651 -0.05746549336093746 0.11537547827436777 0.016898910072935418 0.037439887850197973 0.098622361736324327 0.040780329440007528 -0.020175546514985983 0.068774191082257269 0.032091126787580519 0.0087828558008794834 0.012221838102914655 -0.087935016797413085 -0.030848524816414258 -0.073185320612980095 -0.03134762021234936 -0.0074077922505811095 -0.13388030267474271 0.021314625537885792 0.041116883565165852 -0.048386552047463866 0.072184525591164159 0.12448009460162775 0.048657518178108518 0.05994989347729042 -0.14648024433497769 0.0031688751432965619
leaf_weight=13814.760510057211 34707.189866319299 16597.304220676422 44329.148964822292 27380.048675701022 29449.4055660218 3874.9168035238981 16768.397945895791 11778.624950200319 1156.4445901364088 8735.8542966097593 36112.013377055526 8168.8225855827332 44612.885175794363 10168.462804988027 37633.959374755621 25128.978943914175 3170.1794417351484 24431.806854918599 11135.440982803702 3712.3407432734966 70950.736328333616 25710.417235761881 5862.2293322831392 36209.545094683766 46269.655470952392 17351.550167888403 650.74196791648865 15930.832172468305 11862.718444406986 7336.543406650424 21776.073719576001 32323.275558680296 40167.768314570189 82933.037049278617 13281.266242653131 185.94781596958637 13415.542783752084 5912.8791602998972 2019.2610577642918 4008.6951414495707 25329.694033771753 2032.2873056828976 33846.664759114385 15508.217585548759 3983.6421297490597 14353.55287694931 52983.920115500689 18732.730639666319 32280.269966676831 7313.8445089757442 14710.002897903323 5533.2924457341433 2944.4275753200054 17403.352720588446 11328.750462397933 5295.0356406569481 40928.098921880126 1866.4571859240532 20186.649189963937 7287.1135219484568 24239.14096736908 7855.1011817455292 16293.436803817749 2523.762501463294 12829.811790630221 33013.641348183155 12733.116884455085 22533.55751773715 7002.4665333330631 16458.275238722563 4811.8480337262154 1466.1934206038713 28906.435192227364 12531.168467923999 15534.359917894006 24459.012373581529 12264.610185340047 6738.3800949454308 10930.359113931656 6966.2087057679892 8515.6999642401934 1923.9426063150167 8396.4342865347862 1246.720708116889 1406.8176000416279 3027.5589497983456 15085.841373831034 7888.1187372356653 17601.466666504741 242.44076699018478 24986.141259804368 12825.367613181472 9539.5629507005215 1965.6499179005623 3715.2027113735676 18075.232347592711 32650.45287129283 328.11567240953445 13114.364178344607
leaf_count=56136 155391 69447 197923 110015 123206 16453 67890 50317 4757 37055 146370 34534 183617 41186 155095 102996 12804 102386 47911 15329 284602 104773 25155 146040 188588 70281 3037 65030 48519 31839 89104 131748 175979 333964 54013 751 56885 24805 8227 16892 108029 8354 139855 67220 17403 60863 213870 76323 130778 30057 65793 22668 12019 70770 45932 22864 166480 7633 87195 30166 98686 31951 67210 10415 51818 133150 54123 93897 29844 68006 20073 6050 131862 51113 70502 98157 52599 29823 45119 28271 35351 7824 34287 5120 6141 12784 65607 32278 71549 970 101192 52283 39788 8049 16208 75630 134435 1338 53146
internal_value=-3.13859e-06 -0.00954769 0.0385222 5.6045e-05 0.0121648 -0.059541 0.0594109 0.00492308 -0.0176237 -0.0210459 -0.0156565 0.0445936 -0.00532699 0.0252521 -0.0265244 -0.0210106 0.0693835 -0.0718076 0.052532 0.0458928 0.00274557 0.004265 -0.0129417 -0.0268509 -0.0277044 0.033483 0.001371 0.00762229 0.0174894 -0.0113996 0.0426488 0.0548832 0.0547768 0.0098838 0.00934771 0.00364752 0.043426 0.0153545 -0.0272622 -0.000265616 -0.0823642 -0.0699969 0.0377645 -0.0751007 0.0415425 0.0367991 -0.0151862 -0.0198151 -0.0159086 -0.0206577 -0.0739165 -0.0300796 -0.0602022 0.0192807 0.0379485 -0.0339628 -0.0439018 -0.0471769 -0.0673718 -0.0114236 0.0190419 -0.044211 -0.0631594 0.0468677 0.0111664 0.000409933 0.0711758 0.0260911 -0.0285713 -0.0181587 0.0140354 0.0530298 -0.0767534 -0.0273952 0.0883273 -0.00129677 0.0816928 0.0591349 0.00953235 -0.0569782 0.0975254 -0.0330779 -0.0192303 -0.0777368 -0.00518708 0.0188403 -0.0523766 0.00176984 -0.0282008 0.0680325 0.00828529 0.0377248 -0.0710066 0.00464546 0.0788277 0.0311745 0.0476355 0.0189131 -0.0197555
internal_weight=1.6635e+06 1.3332e+06 330297 1.11836e+06 663760 214838 211423 542593 454604 431363 388581 121167 360717 181876 251421 218530 181150 171213 109113 23241 265087 137160 32245.9 193401 95629.2 149630 118874 105060 83267.4 43625.5 89461.6 61772.7 102284 203131 71404.7 33344.5 107293 27689 12054.5 30272.3 123840 42782.1 93877.2 40749.8 62116.2 58132.5 114839 82603.9 57990.7 61956.8 89132.8 21792.2 10281 120198 36417 23859.9 78562.1 10035.3 74422.8 26021.2 79169.6 47372.7 32890.7 8385.99 83780.5 58123.4 17604.8 43779 51615.4 20333.2 19013.6 6278.04 54236.1 61855.1 78866.5 57472.7 63332.1 19003 54930.5 25241.6 19651.1 5636.28 18564.9 13025.3 12735.6 10341.4 39517.6 44000.1 63871.1 4251.14 42337.7 13011.3 18275.4 18734 16448.3 40608.8 66497.1 5861.41 49323.9
internal_count=6901971 5508533 1393438 4578968 2716638 929565 911390 2214119 1862330 1764089 1583401 502519 1467549 746570 1025397 888740 787423 748214 452125 98241 1075652 558004 133907 785744 391897 612663 482048 425912 336876 181351 368863 254954 436576 819350 288357 137493 441190 113909 50394 123967 548270 180688 384305 172334 260597 243194 464169 336460 235551 256302 392879 89036 43858 485386 148966 98337 321575 42167 327086 106105 322453 199944 136657 35570 336420 234344 75088 182331 213461 84459 78196 26123 239891 250299 350847 231307 280345 82422 223767 105114 83262 23153 75473 55437 52073 42841 167993 178648 260137 17862 171473 53034 76843 75939 70331 169527 274290 24006 199186
is_linear=0
shrinkage=0.1


Tree=7
num_leaves=100
num_cat=0
split_feature=20 0 0 0 20 1 21 1 3 50 21 21 1 39 21 21 49 1 35 3 49 23 1 49 0 39 49 1 21 19 21 35 20 3 49 1 49 20 49 44 21 1 1 1 49 1 1 49 49 20 21 1 49 21 21 39 1 49 0 1 49 21 49 39 40 43 21 49 19 49 34 1 1 49 21 20 49 49 49 1 21 21 21 21 19 20 15 21 49 49 20 21 49 21 33 21 21 19 39
split_gain=50298.1 53778.8 21460.6 19274.8 15925.8 11775.9 11023 10734.6 9515.39 8256.57 5804.47 5770.64 6730.64 5566.02 5506.56 5448.06 4871.35 4859.81 4671.73 4534.74 4231.56 4179.31 4003.59 4065.64 3359.46 3363.97 3308.44 2830.47 2809.22 2744.66 2603.78 2517.31 2409.83 2401.57 2345 2326 2221.44 2166.56 2148.7 2118.67 2089.16 2191.29 2077.54 2070.3 2030.19 2020.21 2012.9 1960.22 1941 1919.96 1915.72 2526.43 1910.53 1905.19 1890.26 1846.19 1781.65 1762.2 1728.98 1676.14 1645.92 1633.64 1536.91 1529.73 1513.79 1408.33 1385.65 1415.5 1357.4 1347.61 1344.98 1326.68 1321.86 1318.49 1301.74 1287.83 1256.04 1242.86 1238.57 1208.29 1605.39 1320.32 1168.08 1141.22 1113.66 1107.55 1106.86 1101.79 1451.3 1100.45 1082.05 1063.24 1053.08 1049.4 1125.57 1004.89 1001.63 985.176 974.496
threshold=1.0000000180025095e-35 1.5000000000000002 1.0000000180025095e-35 1.0000000180025095e-35 1.5000000000000002 7.5000000000000009 7.5000000000000009 7.5000000000000009 1.0000000180025095e-35 1.0000000180025095e-35 7.5000000000000009 5.5000000000000009 5.5000000000000009 1.0000000180025095e-35 7.5000000000000009 9.5000000000000018 -0.12337313651192756 9.5000000000000018 1.0000000180025095e-35 1.0000000180025095e-35 0.19062500000000004 1.0000000180025095e-35 6.5000000000000009 -0.12337313651192756 -1.0000000180025095e-35 1.0000000180025095e-35 0.2057147158676334 9.5000000000000018 8.5000000000000018 1.0000000180025095e-35 4.5000000000000009 1.0000000180025095e-35 1.5000000000000002 1.0000000180025095e-35 -0.15780470019713702 9.5000000000000018 -0.32102663541960774 1.5000000000000002 0.19062500000000004 -1.0000000180025095e-35 2.5000000000000004 2.5000000000000004 10.500000000000002 7.5000000000000009 0.2057147158676334 8.5000000000000018 9.5000000000000018 -0.28404299444570247 0.22547784372256879 -1.0000000180025095e-35 8.5000000000000018 6.5000000000000009 0.20953770751073625 10.500000000000002 9.5000000000000018 1.0000000180025095e-35 10.500000000000002 0.17031407205301799 1.5000000000000002 2.5000000000000004 -0.32102663541960774 10.500000000000002 -0.17343610933746542 1.0000000180025095e-35 -1.0000000180025095e-35 1.0000000180025095e-35 7.5000000000000009 -0.26664489977555933 1.0000000180025095e-35 -0.27238791260221373 1.0000000180025095e-35 9.5000000000000018 4.5000000000000009 -0.27238791260221373 10.500000000000002 1.5000000000000002 0.35491798718926898 -0.33489008929293507 0.21354166666666669 3.5000000000000004 3.5000000000000004 3.5000000000000004 10.500000000000002 6.5000000000000009 1.0000000180025095e-35 1.5000000000000002 1.0000000180025095e-35 8.5000000000000018 -0.19911227362298387 0.33975178488513907 1.5000000000000002 5.5000000000000009 0.31927385651312606 1.5000000000000002 1.0000000180025095e-35 4.5000000000000009 4.5000000000000009 1.0000000180025095e-35 1.0000000180025095e-35
decision_type=2 2 2 2 2 2 2 2 2 2 2 2 2 2 2 2 2 2 2 2 2 2 2 2 2 2 2 2 2 2 2 2 2 2 2 2 2 2 2 2 2 2 2 2 2 2 2 2 2 2 2 2 2 2 2 2 2 2 2 2 2 2 2 2 2 2 2 2 2 2 2 2 2 2 2 2 2 2 2 2 2 2 2 2 2 2 2 2 2 2 2 2 2 2 2 2 2 2 2
left_child=2 3 24 7 14 8 18 19 10 11 13 12 16 26 22 35 65 50 36 52 39 48 23 69 -1 61 32 49 47 40 38 70 95 45 -15 60 -4 -36 55 -11 41 63 -30 44 58 87 89 -9 91 -8 51 68 66 -29 92 97 -17 85 -38 -42 -7 86 -20 93 -41 -6 67 -2 -13 -3 -31 -49 90 -14 -22 -23 -12 -24 -32 80 -34 -81 -19 98 -57 -21 -26 88 -27 -16 -69 -10 -51 94 -18 -5 -60 -25 -62
right_child=1 4 6 5 9 15 27 28 21 20 76 17 73 34 46 56 29 82 62 57 74 75 77 30 25 33 -28 53 42 31 78 -33 79 -35 37 -37 43 -39 -40 64 59 -43 -44 -45 -46 -47 -48 71 -50 54 -52 -53 -54 -55 -56 84 -58 -59 96 -61 83 -63 -64 -65 -66 -67 -68 72 -70 -71 -72 -73 -74 -75 -76 -77 -78 -79 -80 81 -82 -83 -84 -85 -86 -87 -88 -89 -90 -91 -92 -93 -94 -95 -96 -97 -98 -99 -100
leaf_value=-0.1562541667339068 -0.10551057696458402 -0.058985588723510785 0.004530494909763756 0.014803156398265236 -0.056926570529053012 -0.056451672888436555 0.18093340625587681 -0.042550215914450407 0.01969944574536598 -0.0098429663402495975 -0.091780672227696522 -0.096223093565066628 -0.013622080340636018 -0.074425998272739644 -0.046279849935432008 -0.06502036115379535 0.014158488144340897 0.087076466633785793 0.0053758514122481376 -0.03828071331420782 0.07283234713795482 -0.0026429346557474052 -0.039483958672503899 0.04141184145975367 0.023487928165236698 -0.057645226864927582 0.052060445539682587 0.084312967919557627 -0.066991057560425601 0.027261274554288152 -0.0049121940721198708 -0.011116577016219306 -0.029619455189671441 0.012694504603969323 -0.019507757293882995 0.083846703420921001 0.049931096208194171 -0.050327374116687397 0.081887200821419245 0.0015093295768226584 -0.072725498551043127 0.03280772194351296 0.016498224298839761 0.11210374056341506 0.0989670228110614 0.015703444598442941 0.046367162601563698 0.0035698186945145277 0.068012348346225757 0.0027834283905703479 -0.10681433977209549 0.0085296121236156288 -0.042633656498892974 -0.01158304198911508 -0.037364071158863102 0.0028289263021528035 0.03319088892110076 -0.007882495679524348 0.089791539040512985 -0.014474929225627615 0.092721240598904742 -0.034368679588710642 0.049134623414488737 -0.031692957777059536 0.033239060228889769 -0.011277027594174708 -0.11238821702355668 -0.064370422772499034 -0.037013767314474831 0.0046269594011173528 0.0015068293027547602 0.054468541270915209 -0.050316321574158551 0.070891543791389108 -0.067859266470029475 -0.030761647721621873 0.02510374893042058 0.087264781052420429 0.052626564519334021 0.034590923381505885 -0.079113396683736639 -0.026237151907135138 -0.051073432795682584 0.011781074739350387 0.034574296511878364 -0.070912778876983787 0.063784796550932096 -0.07588989886464699 -0.012151964527449079 0.055478675513085086 -0.093821142036319471 -0.019879601534639423 0.070071450939156177 -0.035256544256467175 -0.010021805060924524 -0.02194176934817979 0.052436153719799518 0.067093359513581294 0.035893688893368185
leaf_weight=1339.0597079396248 15178.098304212093 4029.2844439148903 4109.0000158399343 23369.940259024501 22716.076529398561 2017.4760015904903 550.36792953312397 5937.7298287302256 38361.177500203252 25230.767483592033 19224.466620281339 8144.7126419097185 2127.0380027145147 22168.994400754571 12976.884494319558 6733.930651396513 30117.060994356871 3009.8067140430212 10470.65624935925 25008.267272055149 17570.401519328356 31064.961860254407 809.31469489634037 37341.713253870606 21118.623688012362 10157.284031689167 7171.9715355485678 7096.8391768485308 11231.36609607935 56196.662208706141 18066.737375959754 44982.600643098354 40111.683575719595 33412.098387300968 37326.454241111875 11980.179832801223 36007.748596578836 58648.927594438195 13180.527671769261 21376.770749732852 9299.3200552761555 12528.541269958019 4057.1376863569021 16534.825841724873 24285.157527029514 10977.623086392879 3540.950854331255 14011.751473680139 7342.8619151562452 17255.197123870254 7079.4955202788115 5957.0978110581636 13702.640050515532 2925.8998577743769 12819.258188098669 14251.100460723042 2545.3355752676725 11579.886683762074 28719.627415075898 10537.098324641585 4847.6961654871702 3632.1892311275005 34382.093082413077 27850.98581558466 50691.691171556711 9620.3426492512226 13390.153141111135 22729.187736853957 7380.5773996561766 19196.587762221694 31724.350296720862 8070.5512209385633 20310.711109787226 13969.384306609631 683.21129305660725 34241.259450346231 965.54151570796967 17548.657581999898 4718.0924482345581 5343.0047920644283 7833.3849390298128 10743.561119645834 768.24423785507679 9610.0339189171791 49209.058147639036 17806.935615837574 10064.865568682551 5174.0157328248024 22647.854330211878 1157.5452602505684 27654.065128982067 8246.4629339873791 2688.2181189209223 10213.117816030979 53355.775475144386 10920.330885887146 9569.7329549789429 24896.208208069205 7993.2785261720419
leaf_count=6078 70965 16183 17105 93857 94592 8155 2286 25036 155420 102169 85465 35158 8837 93691 55178 28824 120868 12463 43028 105769 75959 125365 3307 156214 85890 41280 29255 31279 49011 225829 72996 180410 167124 134913 150578 53411 155685 243856 57206 86429 37933 50667 16693 76238 112144 45026 15001 57583 30171 71744 30737 24712 58484 11924 52604 58366 10407 48218 134546 42738 20537 15137 147469 111884 206054 39404 63417 99699 30990 77953 127184 33028 90204 59035 2769 141111 3956 77291 19926 21833 33350 44713 3090 39495 201907 79470 41018 21296 91410 4769 131988 34628 11681 41118 214234 44077 43657 104598 33531
internal_value=-3.07227e-06 -0.00866876 0.0351856 -0.0301583 0.0102394 -0.0174958 0.0545827 -0.0547305 -0.0235189 6.90377e-05 -0.0348405 -0.0072606 -0.00336899 -0.0302046 0.0324807 0.0303284 -0.00655116 -0.0476014 0.0664302 -0.0662134 0.0233849 -0.00037111 0.0371365 0.032714 0.00124108 0.00304077 -0.0135094 0.00972547 -0.0103561 -0.00240272 0.0383346 0.00812426 -0.0182923 -0.00797454 -0.0451122 0.0477444 0.0767797 -0.0383411 0.0434751 0.0150963 -0.0114934 -0.00701176 -0.0448354 0.0793586 0.0738664 -0.0220808 -0.0210556 0.00845677 0.0202253 -0.00429273 -0.0617001 -0.0468328 -0.0776359 0.0563184 -0.00740427 0.0394472 -0.0380807 -0.0424919 0.0656619 -0.0417828 0.030068 0.0291014 0.0389194 -0.0111165 0.0238275 -0.0433455 -0.0824677 -0.0778022 -0.0680755 -0.00640871 0.0179684 0.0221721 -0.0718531 0.0597236 0.0675664 -0.0173861 -0.0861909 0.081677 0.00700245 -0.0297489 -0.0377059 -0.00603367 0.0589845 0.0378428 0.0274453 -0.0518525 0.0364943 -0.0330021 -0.0262378 -0.0379463 -0.0805352 0.0126966 0.0118533 -0.00499956 -0.00129754 0.0031011 0.0804552 0.0516849 0.0573471
internal_weight=1.64947e+06 1.32354e+06 325938 619481 704054 408813 207415 210668 363085 483131 243828 367578 335238 223638 220923 45727.9 319142 32339.9 164079 167360 115553 119257 203247 184889 118524 117185 105494 43335.8 43308.5 286806 161663 132904 98321.9 82368.9 118144 36448.7 119226 95975.4 138879 97299.2 153902 134065 15288.5 115117 98582.3 48956.8 17675.4 28020 53950.5 33313 28561.9 21482.4 112965 10022.7 32762.7 125698 9279.27 54395.1 74297.1 19836.4 24468.5 34815.7 44852.7 121537 72068.5 32336.4 99262.2 85872.1 15525.3 23225.9 87921 22082.3 70694 16096.4 18253.6 65306.2 20190 18358 22784.8 64031.6 47945.1 16086.6 3778.05 22451 63460.2 42815.2 31183.5 37979.2 32805.1 14134.4 50383.3 46607.6 19943.4 93686 83472.8 34290.3 38289.4 62237.9 12841
internal_count=6901971 5508533 1393438 2622375 2886158 1692810 911390 929565 1498450 1965263 1011755 1491883 1354733 922334 920895 194360 1286861 137150 729872 748214 473380 486695 845947 765349 482048 475970 434209 181518 181351 1152865 671213 533423 404954 333925 488125 155129 539375 394434 578291 394652 619442 538771 65704 522270 446032 199012 74948 115647 220219 138315 121597 90860 514757 43203 136029 521085 39231 233457 333888 80671 101718 142045 190497 488104 292483 133996 456273 392856 66148 94136 353013 90611 321891 67872 78728 266476 89421 80598 92922 267020 200474 66546 15553 93563 260273 185239 126908 153986 132690 59947 231687 190048 83425 376220 335102 137934 178203 260812 54068
is_linear=0
shrinkage=0.1


Tree=8
num_leaves=100
num_cat=0
split_feature=20 0 43 0 49 21 23 1 44 21 1 49 1 49 15 21 19 1 23 42 1 3 1 21 20 0 1 21 19 0 1 21 49 1 1 21 44 21 23 42 49 21 50 49 21 49 21 1 49 0 35 49 3 49 49 21 21 21 49 20 1 1 1 39 20 19 1 49 21 15 15 20 1 20 49 15 12 21 49 20 1 21 1 1 49 21 1 44 0 21 0 21 1 49 21 39 21 1 21
split_gain=41380.1 44163.3 18202.8 17994.4 13158.7 9324.56 9314.6 9108.41 7663.25 6721.83 7701.77 5739.22 5277.44 5451.03 4848.11 4324.21 4266.23 4226.85 4145.08 3804.74 3765.89 3384 3241.31 3206.83 3100.87 3076.7 3069.64 2894.71 2849.51 2811.62 2925.05 3214.26 3286.83 2422.51 2337.31 2639.34 2336.86 2319.07 2302.81 2293.02 1980.59 1968.58 1964.3 1877.12 1869.28 1939.47 1743.69 1683.29 1672.56 1653.27 1620.41 1591.13 1572.42 1554.7 1491.33 1475.21 1406.34 1389.58 1355.88 1312.14 1308.51 1305.5 1287.8 1281.75 1276.11 1248.73 1222.82 1212.78 1191.51 1151.37 1146.2 1127.06 1102.31 1094.1 1077.11 1066.34 1060.86 1053.04 1051.21 1034.28 1015.74 1008.06 998.707 954.293 1126.31 930.371 929.375 925.936 915.521 913.013 888.08 872.339 1133.14 867.038 858.519 853.733 851.968 840.256 838.075
threshold=1.0000000180025095e-35 1.0000000180025095e-35 1.0000000180025095e-35 1.0000000180025095e-35 -0.079166666666666677 7.5000000000000009 1.0000000180025095e-35 7.5000000000000009 -1.0000000180025095e-35 8.5000000000000018 6.5000000000000009 0.23361358205555674 8.5000000000000018 -0.28404299444570247 1.0000000180025095e-35 4.5000000000000009 1.0000000180025095e-35 5.5000000000000009 1.0000000180025095e-35 1.0000000180025095e-35 2.5000000000000004 1.0000000180025095e-35 4.5000000000000009 4.5000000000000009 -1.0000000180025095e-35 1.5000000000000002 8.5000000000000018 7.5000000000000009 1.0000000180025095e-35 -1.0000000180025095e-35 10.500000000000002 8.5000000000000018 -0.22779105961171794 8.5000000000000018 10.500000000000002 8.5000000000000018 -1.0000000180025095e-35 6.5000000000000009 1.0000000180025095e-35 1.0000000180025095e-35 -0.28404299444570247 10.500000000000002 1.0000000180025095e-35 -0.38201933867041765 7.5000000000000009 0.14629920526655368 9.5000000000000018 7.5000000000000009 0.19062500000000004 1.5000000000000002 1.0000000180025095e-35 -0.35100950003811038 1.0000000180025095e-35 0.30075694363698108 -0.24625252737696091 5.5000000000000009 10.500000000000002 9.5000000000000018 0.070840588963180531 1.5000000000000002 8.5000000000000018 9.5000000000000018 2.5000000000000004 1.0000000180025095e-35 -1.0000000180025095e-35 1.0000000180025095e-35 3.5000000000000004 -0.148774886812163 9.5000000000000018 1.0000000180025095e-35 1.0000000180025095e-35 1.5000000000000002 11.500000000000002 1.5000000000000002 0.32615606377167067 1.0000000180025095e-35 1.0000000180025095e-35 4.5000000000000009 0.3469831088915899 1.5000000000000002 8.5000000000000018 6.5000000000000009 4.5000000000000009 7.5000000000000009 -0.088540336467253608 11.500000000000002 11.500000000000002 -1.0000000180025095e-35 -1.0000000180025095e-35 11.500000000000002 1.5000000000000002 6.5000000000000009 4.5000000000000009 0.32615606377167067 6.5000000000000009 1.0000000180025095e-35 11.500000000000002 2.5000000000000004 2.5000000000000004
decision_type=2 2 2 2 2 2 2 2 2 2 2 2 2 2 2 2 2 2 2 2 2 2 2 2 2 2 2 2 2 2 2 2 2 2 2 2 2 2 2 2 2 2 2 2 2 2 2 2 2 2 2 2 2 2 2 2 2 2 2 2 2 2 2 2 2 2 2 2 2 2 2 2 2 2 2 2 2 2 2 2 2 2 2 2 2 2 2 2 2 2 2 2 2 2 2 2 2 2 2
left_child=3 7 4 24 12 18 9 16 17 10 14 19 13 65 15 20 63 23 40 25 36 91 28 39 -1 73 74 80 77 -26 31 32 -31 53 35 54 -4 -24 44 62 -5 -35 59 -14 45 -18 78 49 82 69 75 -12 83 64 -9 66 -28 -45 -16 -27 81 -29 70 -2 -7 -3 95 -22 -66 -42 -6 -23 85 -10 -11 -34 -44 97 94 -38 -19 -53 -17 84 -20 -36 96 -69 -56 93 -81 92 -8 -33 -13 -21 -32 -15 -61
right_child=1 2 6 5 8 33 21 34 11 26 51 46 43 22 58 48 38 27 52 55 67 71 37 -25 29 42 56 61 -30 30 86 89 50 41 72 -37 79 -39 -40 -41 47 -43 76 57 -46 -47 -48 -49 -50 -51 -52 60 -54 -55 88 -57 -58 -59 -60 98 -62 -63 -64 -65 68 -67 -68 87 -70 -71 -72 -73 -74 -75 -76 -77 -78 -79 -80 90 -82 -83 -84 -85 -86 -87 -88 -89 -90 -91 -92 -93 -94 -95 -96 -97 -98 -99 -100
leaf_value=0.15318065612604975 -0.063985838071614329 -0.10767913842439295 -0.011244859774319424 0.019214155345947344 -0.047876560008748133 0.17074639518091281 -0.029145867235325203 -0.043930930641559257 -0.0037612371517764241 -0.07628810830390112 -0.031442525105195761 0.062366689643095885 -0.065122582783732008 -0.067752988487472951 0.035925867051550139 -0.047047870069890051 -0.035309830316962769 0.028367366343851144 -0.022289254699894321 0.035120410260046829 0.0062961406420509545 0.019602267345710342 0.0086143236851913014 -0.061342209087072323 -0.14850009926926014 0.018714214372794042 0.045857097865537336 -0.046113138362329692 -0.025810665560420717 -0.031190012143293585 0.052587092798544947 -0.044398304396364413 0.014008826930584485 0.063777880289948491 0.029300730478468789 -0.061415647306338909 0.035842738836680509 -0.058888337104565647 -0.062944289669965306 -0.0026664395903496793 0.043407679625583395 -0.01839362971553387 0.0050050374034497185 0.059801276145493569 -0.074501623208362414 0.016706518343169687 -0.032982597253327757 0.10688058413942483 0.027254165546917109 0.084247965742358225 -0.0038785668530236851 0.077267337153580695 0.054168203286622522 0.040721897432686088 -0.17636779460243471 -0.015390499669805028 -0.046103758660811345 -0.031044636423581441 0.066231710188579179 -0.0045149932356784821 0.10405179689256204 0.031145799975981721 -0.007341061671073382 -0.092023238810690883 -0.0050453920503934404 -0.06055573356012986 0.059175286031533547 0.027253029716231243 -0.052687180673858386 0.076714350285073757 -0.0078816140775941814 -0.0048361029324381121 0.12935549890848139 -0.031289523842886822 0.019746516376223319 0.046490903200221562 0.034008922449240218 -0.10112300024276039 0.099872007184432482 -0.013479507617053755 0.08942387379184645 0.026846751397107162 -0.007010981032116774 0.066312844097603338 0.027539559933906499 -0.17721734020269275 0.15073914087527768 0.060387329271679183 0.016080706614360701 -0.14810938711195717 0.018325772710777198 -0.061962386518607408 0.0079756560640473016 0.018598414682221617 0.0053393869589228073 0.0096017167581597691 -0.17556997174698608 -0.036408385024061636 -0.030397156225347607
leaf_weight=1325.9219522178173 27798.105546802282 12532.143991068006 31853.379414260387 6577.5057535022497 40224.339109316468 346.98020727932453 39316.718509480357 6226.2889928370714 21485.116536870599 10225.676060676575 1367.9733718931675 11455.131390020251 1926.9349757432938 21744.547848939896 42241.02514025569 14726.917384088039 29783.619839295745 13027.654838502407 6828.7383769601583 24850.846707701683 7008.6647400707006 35968.817119345069 24648.300953641534 24270.530115753412 1271.5488132238388 22248.412297919393 5191.3196359723806 8024.3287602216005 46262.204889342189 19709.787139475346 6655.9082356244326 16053.295359358191 24266.361782282591 10806.295484870672 7364.444416180253 11036.339262127876 28917.885758683085 6413.8102045357227 48515.788941979408 41347.445357829332 26067.418204799294 3992.6920120418072 24743.764880418777 8630.7136488854885 8506.6899092942476 9440.0236292779446 2076.8118345439434 14906.111977517605 6346.5488905310631 43633.698455899954 27128.793345704675 13288.05731792748 27930.025690406561 5254.8526032418013 250.88530205190182 9017.2016073912382 2446.7607444375753 2091.8075884729624 22694.088086828589 94840.766503632069 12357.352164432406 3006.6542817205191 15094.465171799064 39437.909212142229 14333.156736671925 10200.454308852553 10406.3052777946 11659.666653335094 8283.2969605177641 17245.123113453388 8718.750721141696 39700.89399972558 1122.5065164864063 44015.266217142344 1318.4861990362406 17320.306347772479 25718.468623399734 5868.0728661864996 5654.8017893284559 10546.97824332118 3445.2667631357908 5651.7643759995699 10799.138260856271 3654.5398894101381 13512.426493406296 224.80127492547035 988.21016466617584 30483.927414953709 16804.191916584969 753.52963206171989 52377.707993239164 5929.0276295542717 10397.71818600595 2528.9231616407633 3430.4402182400227 27749.168631136417 167.79067905247211 14096.775288879871 14411.796387508512
